svm_type c_svc
kernel_type linear
nr_class 26
total_sv 271
rho -0.22034187200245153 0.13692986586964612 -0.08579614024881506 0.18592141287653893 0.1006524926706028 0.04267545908329346 -0.09952681664921266 0.6205458900106268 0.41009560046531995 0.2760116492783864 0.48543001276821635 -0.10189384484621875 -0.012422362086439166 -0.0787963487550956 0.27126445985898523 -8.300288908602453E-5 0.2374783006743271 0.34726924867078396 0.16491486404901534 -0.0437219507007032 0.26481207893907555 -0.040200636465309254 0.050006872792331646 0.1212690761664893 0.2810130395723525 0.3054827749248729 0.3308008386393274 0.19250957208304878 0.36598245615222463 0.42204017146525424 -0.0025631709009531446 0.47852159649409143 0.3911746669833506 0.43824595335984445 0.5068960139568807 0.0452923670640189 0.12115362161783334 0.20154336917075696 0.6651155802609552 0.22934677044195795 0.3199033044736869 0.3846866399028055 0.2879580183034216 0.18003009067741346 0.5029292409329312 0.17275594257067173 0.2882696268516474 0.26907117095812 0.2539235309342977 -0.22485117374176813 0.068917863530732 0.015147688003328814 -0.9374761815956074 -0.13935549194877989 0.3544148576084015 0.30538836956986026 0.16950313603618028 0.4254747054912841 -0.17302537666458728 -0.1319447232931662 -0.3135251688830782 0.38605244524802307 0.3803465839978939 0.29999627751581603 0.5436367975212837 0.13659339767106807 -0.2680232599591892 0.27733838382179143 -0.14388799150398743 0.050498770934042314 0.07725885663019287 -0.05102003929568582 0.02556117512565542 0.3641263688320709 0.25867504705937044 0.028022906174309355 0.4902710160577722 0.4738466878295334 0.293483899944412 0.4832945204547432 0.048725734680889525 0.055273643141169525 0.2803191961954473 0.7356875872962523 0.3025703438526652 0.058499401758638055 0.38113938039756007 0.3230091086737161 0.10690481886650946 0.4377278508685226 0.05121712697219453 0.20832143467248485 0.19524017640785207 0.19907794184104052 0.09958958693995033 -0.36226494413553095 -1.215798130375731 0.12210362298222426 -0.12082923725265371 0.22586484378618743 0.625611011162057 -0.5031289464143798 -0.5318354090089177 -0.4108334001174751 0.24033235615549797 -0.42806792875038646 -0.1400178509353433 -0.036007506838647056 -0.10272448340343904 -0.7464561299650807 -0.03659196416462572 -0.5447169681651851 0.021566876708771 -0.08332105081511015 -0.23844370548989172 -0.1064195566491565 -0.820160416788555 0.4943726697487613 0.158486420352112 0.14919340860510943 0.40692261831541987 -0.416457109675781 -0.3405516120820968 -0.2937539073972302 0.13020145669464103 -0.22142591306979725 -0.11885902531666934 0.09173254397773205 -0.11119843473281349 -0.3658650256134045 0.13112185628068082 -0.3739230228551367 -0.019696484918916922 -0.0956709491127375 -0.11285272741244294 -0.036895316804876684 0.41891136441824867 0.21143254626791044 0.22791977099386734 0.49060821471167565 -0.13894914321068255 -0.11149048130809734 -0.49605479797959223 0.34346764864268037 -0.13328322097356984 0.23943625193197998 0.35887351083902636 0.21454287656105778 -0.29958825127523514 0.1872336535948697 -0.2479329444115871 0.08100187894934 0.10490541235713885 -0.023953368164932622 1.0435680990730376 1.0324413345745838 0.3135721183898685 0.7350511957509533 -0.5658458591501732 0.3162187521694795 -0.18053064423210413 0.5047064605012094 -0.08347530467616249 0.3401135090868899 0.35865028735422877 0.6035977692728185 -0.2031596600338175 0.4858489171162709 -0.07454574190604049 0.2649559825367559 0.37391055069171786 0.22192681008558915 -0.4827997968579012 -0.2810720644078026 -0.1360837355668337 -0.5552910005670113 -0.6724922944984703 -0.5284086447966944 -0.5312576652221078 -0.4676683148859274 -0.31635616776139314 -0.07249792038269734 -0.6691452980859838 -0.8017271767196607 -0.10794137792986781 -0.49497268359627267 -0.420638868695552 -0.3910998254206465 -0.4735647839858327 -0.19809727114733675 0.2151404622161187 -0.6880116460470526 -0.38005968655434613 -0.4446067847428364 -0.08488444721726367 -0.46827107132867507 -0.24190064655146784 -0.14492898327532538 -0.30544981537954224 -0.9184548920349191 -0.15015229928741608 -0.36459974031612014 -0.33273166732682874 -0.21530668645959997 -0.22012214407336295 0.2841066645006613 -0.21226881966982272 -0.3321070520166746 -0.2515016236975396 0.03481520522250039 -0.22170424569422673 -0.08865130055851879 -0.020807681205031996 0.03276668561989485 -0.3600092132229987 0.1512686915000663 -0.2870720948446848 0.10445403547097222 0.09428667551088149 0.032075828575162654 -0.589598044712232 -0.6345500605563553 -0.47932631926776453 -0.25172476958014717 -0.4503862021411179 -0.3336418771208006 -0.20398893353847844 -0.3272954845638252 -0.6639959849804327 -0.22373588474196418 -0.5549852916438378 -0.357370512626763 -0.2940933664424677 -0.37352781917208533 0.525428898433888 -0.08907761590980977 0.3964688753634636 -0.0010610957191489144 0.1967181934861636 0.4142314311470415 0.5986707049176512 -0.014424699892772116 0.8777321808682697 0.036732286868657406 0.3052068459237738 0.43142016334316846 0.22455635292133458 -0.1654232233676461 0.3977518164878597 -0.11309292813678398 0.14286215435904423 0.3570860483728886 0.48327492094096924 -0.24912906450209826 0.4045301550679238 -0.0848061952085874 0.4571873478030082 0.24991260043499416 0.22774708937538823 0.4520105487823892 0.6243196079186301 0.3291795262302918 0.4804609454162416 0.27274303567538055 0.09924045432959226 0.3653979244313685 0.03385618165482504 0.16664045081777826 0.23696887391035595 0.16147002932755133 -0.32166889249782316 -1.0476203068986145 -0.006714138102180377 -0.23776708481381062 -0.3319879257320876 0.05590207014593007 -0.43925145435877283 -0.035601904618021527 -0.04722657181523645 -0.17961625557013797 0.33630341618029735 0.32528438472053883 0.059610886378012734 -0.009384675847300072 0.3383013494995465 -0.023908691092873517 0.14069053907498 0.1456357285852554 0.15566577942997578 -0.12966934394270369 -0.007532454748832148 -0.21551191522034338 0.047550583288343 -0.38445134356887695 0.009327834114594424 0.03389032574715761 -0.06344763279876024 -0.12158682518184702 -0.5858663550340939 0.026306108470624843 -0.4480452204969844 0.01615892566242143 -0.018269864735372236 -0.20744126821834358 -0.5272019743638133 0.1579223707281736 -0.34156939140928394 -0.11794152415184554 0.017741125217502807 -0.05554667126473947 0.6575235535190447 -0.028962666225515275 0.2225390978633596 0.3274147675446615 0.24773165272326858 -0.7569330661105153 -0.16333955108812165 -0.10144550411533645 -0.2759625026181939 0.26579456507114196 0.34934183413774644 0.1386446484936863 -0.038397612871895484 -0.0956077967561809 -0.1625434685403247
label 1 2 3 4 5 6 7 8 9 10 11 12 13 14 15 16 17 18 19 20 21 22 23 24 25 26
nr_sv 7 10 14 9 10 10 16 10 10 10 14 9 10 9 10 16 10 14 9 10 6 10 10 10 9 9
SV
0.04212038217052797 0.06336686924136305 0.037148011590383695 0.06602949043279552 0.12393363212379974 0.08405822706647616 0.0792167113303277 6.181841255250899E-4 0.08457315970903007 0.16231710420170714 0.0 0.09571207339630798 0.07886976872007864 0.055968584709556166 0.05567356654585123 0.037763848015653426 0.11453695689569132 0.026780676639775153 0.09059043954940464 0.024856916791653926 0.0452127319166966 0.1157422643762395 0.1892733036231513 0.0923709257101318 0.009718873559717359 1:0.0 2:0.0 3:0.0 4:0.0 5:0.0 6:0.0 7:0.0 8:0.0 9:0.0 10:0.0 11:0.0 12:0.0 13:0.0 14:0.0 15:0.0 16:0.0 17:0.0 18:0.0 19:0.0 20:0.0 21:0.0 22:0.0 23:0.0 24:0.0 25:0.0 26:0.0 27:0.0 28:0.0 29:0.0 30:0.0 31:0.0 32:0.0 33:0.0 34:0.0 35:0.0 36:0.0 37:0.0 38:0.0 39:0.0 40:0.0 41:5.575143732130527E-4 42:0.0 43:0.0 44:0.0 45:0.0 46:0.0 47:0.0 48:0.0 49:0.0 50:2.787571866065264E-4 51:0.0 52:0.0 53:0.0 54:0.0 55:0.2865600883960724 56:0.5620680451393127 57:0.0 58:0.0 59:0.019513003528118134 60:0.0 61:3.9422218105755746E-4 62:0.0 63:0.0 64:0.19597500562667847 65:0.0 66:0.14334312081336975 67:0.02416360192000866 68:0.5070606470108032 69:0.12369728088378906 70:0.09723352640867233 71:0.40374526381492615 72:0.31171783804893494 73:0.0 74:0.0 75:0.0 76:0.0 77:0.0 78:0.0 79:0.0 80:0.0 81:0.0 82:0.0 83:0.0 84:0.0 85:0.0 86:0.0 87:0.0 88:0.0 89:0.0 90:0.0 91:0.0 92:0.0 93:0.0 94:0.0 95:0.9950371980667114 96:0.0 97:0.0 98:0.0 99:0.0 100:0.0 101:0.0 102:0.0 103:0.0 104:0.0 105:0.0 106:0.0 107:0.0 108:0.0 109:0.0 110:0.0 111:0.0 112:0.0 113:0.0 114:0.0 115:0.0 116:0.0 117:0.0 118:0.0 119:0.0 120:0.0 121:0.0 122:0.0 123:0.0 124:0.0 125:0.0 126:0.0 127:0.0 128:0.0 129:0.0 130:0.0 131:0.0 132:0.0 133:0.0 134:0.0 135:0.0 136:0.8192862868309021 137:0.5732192397117615 138:0.005452003329992294 139:0.0 140:0.009637871757149696 141:0.004310186952352524 142:0.005452003329992294 143:0.004310186952352524 144:0.0 145:0.28577128052711487 146:0.33601975440979004 147:0.0 148:0.0 149:2.825421979650855E-4 150:0.0 151:0.0 152:0.0 153:0.0048073697835206985 154:0.15260352194309235 155:0.08348240703344345 156:0.022975662723183632 157:0.0 158:1.8836147501133382E-4 159:0.0 160:0.021407220512628555 161:0.3012748658657074 162:0.21609346568584442 163:0.2290729582309723 164:0.30802279710769653 165:0.030888790264725685 166:0.0 167:0.2608823776245117 168:0.025225847959518433 169:1.3319167192094028E-4 170:0.0 171:0.04770725220441818 172:0.06971792131662369 173:0.0 174:1.3319167192094028E-4 175:0.02641715109348297 176:0.634132444858551 177:0.0 178:0.03389734774827957 179:0.0832480788230896 180:0.04069145396351814 181:0.15375663340091705 182:0.0 183:0.0 184:0.0 185:0.0036827693693339825 186:0.0 187:0.002604111097753048 188:0.3633563816547394 189:0.20095522701740265 190:6.137948948889971E-4 191:0.0 192:0.0 193:0.0 194:0.0 195:0.0 196:0.0 197:0.0 198:0.0 199:0.22864194214344025 200:0.0 201:0.001302055548876524 202:0.0 203:0.0012275897897779942 204:0.0 205:4.340185259934515E-4 206:0.719762921333313 207:0.48330962657928467 208:0.0 209:0.0 210:0.0 211:0.0 212:0.0 213:0.0 214:0.0 215:0.0 216:0.0 217:6.583467475138605E-4 218:0.0 219:0.0 220:0.0 221:0.0 222:0.0 223:0.0 224:0.0 225:0.0 226:0.552086591720581 227:0.7616804242134094 228:9.310428868047893E-4 229:0.0 230:0.17034770548343658 231:0.0 232:0.09551002085208893 233:0.0 234:0.03917301446199417 235:0.0 236:0.0 237:0.0 238:0.0 239:0.0 240:0.0 241:0.0 242:0.0 243:0.0 244:0.0 245:0.0 246:0.0 247:0.0 248:0.2745305895805359 249:0.0 250:0.0 251:0.0 252:0.0 253:0.7224773168563843 254:0.6716420650482178 255:0.11911235004663467 256:0.0 257:0.0019625239074230194 258:0.0 259:4.6257133362814784E-4 260:0.0 261:0.0 262:0.04481096193194389 263:0.0 264:0.0 265:0.0 266:0.0 267:0.0 268:0.0 269:0.0 270:0.06791612505912781 271:0.0 272:0.0 273:0.0 274:0.0 275:0.07817386835813522 276:0.0 277:0.0 278:0.0 279:0.0 280:0.0 281:0.0 282:0.0 283:0.0 284:0.0 285:0.0 286:0.0 287:0.0 288:0.0 289:0.24456216394901276 290:0.05370007082819939 291:0.0 292:0.0 293:0.09418840706348419 294:0.0 295:0.054442279040813446 296:0.8581451773643494 297:0.3812015950679779 298:0.003121253103017807 299:0.0 300:0.0 301:0.0 302:0.0 303:0.0 304:0.0 305:0.0 306:0.0 307:0.0 308:0.0 309:0.0 310:0.0 311:0.20912396907806396 312:0.0 313:0.0 314:0.0 315:0.0 316:0.0 317:0.0 318:0.0 319:0.0 320:0.0 321:0.0 322:0.0 323:0.0 324:0.0 
0.09234187336006722 0.08504474937791451 0.10604286386988444 0.051276207585675186 0.07013490496826408 0.08392843846598956 0.0 0.0 0.0 0.0 0.0044893847534794905 0.0 0.0 0.07683486471111689 0.14132861548555126 0.07265383303827531 0.07979907000363934 0.02800261529925034 0.038527415400950275 0.0 0.0 0.0 0.0 0.0 0.07513366867147549 1:0.0 2:0.0 3:0.0 4:0.0 5:0.0 6:0.0 7:0.0 8:0.0 9:0.0 10:0.0 11:0.0 12:0.0 13:0.0 14:0.0 15:0.0 16:0.0 17:0.0 18:0.0 19:0.0 20:0.0 21:0.0 22:0.0 23:0.0 24:0.0 25:0.0 26:0.0 27:0.0 28:0.9999980926513672 29:0.0 30:0.0 31:0.0 32:0.0 33:0.0 34:0.0 35:0.0 36:0.0 37:0.0 38:0.0 39:0.0 40:0.0 41:2.1265873510856181E-4 42:0.0 43:0.0 44:0.0 45:0.0 46:0.0 47:0.0 48:0.0 49:0.0 50:2.1265873510856181E-4 51:0.0 52:0.0 53:0.0 54:0.0 55:0.30199381709098816 56:0.4331744611263275 57:0.07447842508554459 58:0.0 59:0.4885997176170349 60:0.0 61:0.0 62:0.0 63:0.02169223316013813 64:0.07357992231845856 65:0.0 66:0.0 67:0.0 68:0.5324987173080444 69:0.056122977286577225 70:0.07699068635702133 71:0.37159332633018494 72:0.20070992410182953 73:0.0 74:0.0 75:0.0 76:0.0 77:0.003161392640322447 78:0.0 79:0.0 80:0.0 81:0.0 82:0.0 83:0.0 84:0.0 85:0.0 86:0.0 87:0.0 88:0.0 89:0.0 90:0.0 91:0.30665507912635803 92:0.0 93:0.0 94:0.0 95:0.04425949603319168 96:0.0 97:0.008941768668591976 98:0.8185992240905762 99:0.4835277497768402 100:0.003161392640322447 101:0.0 102:0.0 103:0.0 104:0.0 105:0.0 106:0.0 107:0.0 108:0.0 109:2.508497273083776E-4 110:0.0 111:0.0 112:0.0 113:0.0 114:0.0 115:0.0 116:0.0 117:0.0 118:0.424988329410553 119:0.44832509756088257 120:3.547550877556205E-4 121:0.0 122:0.0015050983056426048 123:0.0 124:0.0 125:0.0 126:0.0 127:0.0 128:0.0 129:0.0 130:0.0 131:0.0 132:0.0 133:0.0 134:0.0 135:0.0 136:0.5107780694961548 137:0.5977619290351868 138:3.547550877556205E-4 139:0.0 140:0.001755948062054813 141:0.0 142:3.547550877556205E-4 143:0.0 144:0.013046597130596638 145:0.39979565143585205 146:0.5918405055999756 147:0.006132373586297035 148:0.0 149:0.002168121514841914 150:0.0 151:0.0010220622643828392 152:0.0 153:0.0 154:0.21078960597515106 155:0.0 156:0.0010220622643828392 157:0.0 158:0.08352257311344147 159:0.0 160:0.03571507707238197 161:0.34847912192344666 162:0.21870945394039154 163:0.1681062877178192 164:0.1374087631702423 165:3.406874311622232E-4 166:0.0 167:0.22668986022472382 168:0.06467724591493607 169:3.406874311622232E-4 170:0.06767428666353226 171:0.0 172:0.10879983752965927 173:0.0 174:0.0 175:0.06962079554796219 176:0.3367815613746643 177:0.0 178:0.0010220622643828392 179:0.1374107450246811 180:0.10773584991693497 181:0.1536499261856079 182:0.0 183:0.0010582013055682182 184:0.0 185:0.0022447840310633183 186:0.0 187:0.0 188:0.6509271264076233 189:0.2527567446231842 190:0.0 191:0.0 192:0.0 193:0.0 194:0.0 195:0.0 196:0.0 197:0.0 198:0.0 199:0.20901434123516083 200:0.0 201:0.0 202:0.0 203:0.002494204556569457 204:0.0 205:7.054675952531397E-4 206:0.5898987650871277 207:0.3116394579410553 208:2.494204672984779E-4 209:0.0 210:0.0 211:0.0 212:2.494204672984779E-4 213:0.0 214:0.0 215:0.0 216:0.0 217:0.08124322444200516 218:0.0 219:0.0 220:0.0 221:0.0 222:0.0 223:0.0 224:0.0 225:0.0 226:0.3081072270870209 227:0.4301120340824127 228:3.369362966623157E-4 229:0.0 230:0.8391176462173462 231:0.061956893652677536 232:0.0 233:0.06682772189378738 234:0.03240286558866501 235:0.0 236:0.0 237:0.0 238:0.0 239:0.0 240:0.0 241:0.0 242:0.0 243:0.0 244:0.0 245:0.0 246:0.0 247:0.0 248:0.0 249:0.0 250:0.0 251:0.0 252:0.0 253:0.2795441746711731 254:0.19094936549663544 255:0.1535879373550415 256:0.059788309037685394 257:0.6128002405166626 258:0.0 259:6.291327881626785E-4 260:0.0 261:0.0 262:0.09564577788114548 263:0.0 264:3.1456639408133924E-4 265:0.0 266:0.6134719848632812 267:0.059577327221632004 268:0.1523369997739792 269:0.19086316227912903 270:0.18445512652397156 271:0.0 272:0.0 273:0.0 274:0.0 275:2.2243203420657665E-4 276:0.0 277:0.0 278:0.0 279:0.0 280:0.0 281:0.0 282:0.0 283:0.0 284:6.672961171716452E-4 285:0.0 286:0.0 287:0.0 288:0.0 289:0.08452732861042023 290:0.0 291:0.0013245395384728909 292:0.06588918715715408 293:0.8958519101142883 294:0.0 295:0.0 296:0.35098084807395935 297:0.18845273554325104 298:0.13839387893676758 299:0.0 300:6.622697692364454E-4 301:0.0 302:0.033951420336961746 303:0.0 304:3.311348846182227E-4 305:0.06746218353509903 306:0.04900908097624779 307:0.0 308:0.0 309:0.0 310:0.0 311:2.3414772294927388E-4 312:0.0 313:0.0 314:0.0 315:0.0 316:0.0 317:0.0 318:0.0 319:0.0 320:0.0 321:0.0 322:0.0 323:0.0 324:0.0 
0.058904381652995844 0.07843229243814669 0.05737198863305806 0.05917399372655502 0.051394775533162185 0.09922778742068615 0.0853321140261965 0.06818322633140342 0.02338041935091521 0.1075718297118865 0.14396398886961945 0.09139870938341363 0.028651501929430438 0.06225440323992451 0.10320452261072047 0.10534808760106441 0.13353807531833073 0.1125930279990188 0.05222687224066493 0.07629799639185257 0.0909095423850069 0.07689979390087368 0.053314746675305384 0.0492830135665821 0.057481345270232284 1:0.0 2:0.0 3:0.0 4:0.0 5:0.0 6:0.0 7:0.0 8:0.0 9:0.0 10:0.0 11:0.0 12:0.0 13:0.0 14:0.0 15:0.0 16:0.0 17:0.0 18:0.0 19:0.0 20:0.0 21:0.0 22:0.0 23:0.0 24:0.0 25:0.0 26:0.0 27:0.0 28:0.7066652774810791 29:0.0 30:0.0 31:0.0 32:0.7066652774810791 33:0.0 34:0.0 35:0.0 36:0.0 37:0.0 38:0.0 39:0.0 40:0.0 41:0.12559296190738678 42:0.0 43:0.0 44:0.0 45:0.0 46:0.0 47:0.0 48:0.0 49:0.0 50:0.07064604014158249 51:0.0 52:0.0 53:0.0 54:0.0 55:0.5002425909042358 56:0.20307590067386627 57:0.21906442940235138 58:0.14086927473545074 59:0.11937582492828369 60:0.0 61:0.0 62:0.0 63:0.04709990695118904 64:0.005309996195137501 65:0.0 66:9.79495933279395E-4 67:0.0 68:0.016160858795046806 69:0.17545205354690552 70:0.6954535245895386 71:0.28469061851501465 72:0.08759467303752899 73:0.0 74:0.0 75:0.0 76:0.0 77:0.0 78:0.0 79:0.0 80:0.0 81:0.0 82:0.0 83:0.0 84:0.0 85:0.0 86:0.0 87:0.0 88:0.0 89:0.0 90:0.0 91:0.1400279551744461 92:0.0 93:0.0 94:0.0 95:0.0 96:0.0 97:0.0 98:0.0 99:0.9901472330093384 100:0.0 101:0.0 102:0.0 103:0.0 104:0.0 105:0.0 106:0.0 107:0.0 108:0.0 109:6.457717390730977E-4 110:0.0 111:0.0 112:0.0 113:0.0 114:0.0 115:0.0 116:0.0 117:0.0 118:0.19963735342025757 119:0.20420484244823456 120:4.56629553809762E-4 121:0.0 122:0.0035517446231096983 123:0.0 124:0.001369888661429286 125:0.0 126:0.0 127:0.0 128:0.0 129:0.0 130:0.0 131:6.457717390730977E-4 132:0.0 133:0.0 134:0.0 135:0.0 136:0.4409913122653961 137:0.8212993144989014 138:0.2220374345779419 139:0.0 140:0.0016144292894750834 141:0.0 142:0.0 143:0.0 144:0.010982866398990154 145:0.329163521528244 146:0.4749493896961212 147:0.057875823229551315 148:0.0 149:0.12212283909320831 150:0.0 151:0.0577545166015625 152:0.046847324818372726 153:0.04821740835905075 154:0.012252584099769592 155:0.0 156:0.0016391132958233356 157:0.0 158:0.0013246036833152175 159:0.0 160:0.05798867717385292 161:0.18134474754333496 162:0.0657215416431427 163:0.11194729059934616 164:0.0 165:0.046868350356817245 166:0.047851309180259705 167:0.7124006748199463 168:0.0 169:0.05056155100464821 170:0.0 171:0.04245356097817421 172:0.04304961860179901 173:0.04923858866095543 174:0.0 175:0.04369718208909035 176:0.20392082631587982 177:0.13615018129348755 178:4.6831811778247356E-4 179:0.05544765293598175 180:0.030963052064180374 181:0.022546296939253807 182:0.0 183:0.0014493309427052736 184:0.0 185:0.0012810396729037166 186:0.0 187:0.3461059629917145 188:0.4837368130683899 189:0.23249083757400513 190:0.0 191:0.0 192:0.0 193:0.0 194:0.0 195:0.0 196:0.0 197:0.0 198:0.0 199:0.05918779969215393 200:0.0 201:3.623327356763184E-4 202:0.0 203:0.0010248316684737802 204:0.0 205:0.17383095622062683 206:0.7134671807289124 207:0.22003185749053955 208:0.021777674555778503 209:0.0 210:0.0 211:0.0 212:2.5620791711844504E-4 213:0.0 214:0.0 215:0.0 216:0.0 217:0.18203429877758026 218:0.0 219:0.10370586812496185 220:0.06150836870074272 221:0.002013011369854212 222:0.0 223:0.16948071122169495 224:0.0 225:0.07333169132471085 226:0.036668505519628525 227:0.16540805995464325 228:0.3627486824989319 229:0.14948704838752747 230:0.8082429766654968 231:0.2731052041053772 232:0.08797385543584824 233:0.0 234:0.0 235:0.0 236:0.0 237:0.0 238:0.0 239:2.875730278901756E-4 240:0.0 241:0.0 242:0.0 243:0.0 244:0.0 245:0.0 246:0.0 247:0.0 248:0.0 249:0.0 250:0.0 251:0.0 252:0.0 253:0.32142147421836853 254:0.1701308935880661 255:0.16590066254138947 256:0.19966287910938263 257:0.28978630900382996 258:0.038291532546281815 259:0.2385755479335785 260:0.16330184042453766 261:0.033247534185647964 262:0.1892610639333725 263:0.12199801206588745 264:0.251247763633728 265:0.0 266:0.5142801403999329 267:0.2620375454425812 268:0.33424872159957886 269:0.006546110846102238 270:0.26735755801200867 271:0.0 272:0.0 273:0.0 274:0.0 275:2.793812018353492E-4 276:0.0 277:0.0 278:0.0 279:0.0 280:0.0 281:0.0 282:0.0 283:0.0 284:5.587624036706984E-4 285:0.0 286:0.0 287:0.0 288:0.0 289:0.018592124804854393 290:0.0 291:0.0 292:0.13349184393882751 293:0.8864533305168152 294:0.0 295:7.010841509327292E-4 296:0.11343324184417725 297:0.0 298:0.11769095808267593 299:0.06419132649898529 300:0.2281794250011444 301:0.1007346659898758 302:0.11476412415504456 303:0.10752104967832565 304:0.22887271642684937 305:0.1477593034505844 306:0.06352069973945618 307:0.0 308:0.0 309:0.0 310:0.0 311:2.478706883266568E-4 312:0.0 313:0.0 314:0.0 315:0.0 316:0.0 317:0.0 318:0.0 319:0.0 320:0.0 321:0.0 322:0.0 323:0.0 324:0.0 
0.01235176798647899 0.019704735910424445 0.0 0.041362597235480705 0.1269985783434026 0.0 0.060697155290605806 0.16598204696891994 0.0732974956523485 0.12821751699010478 0.0 0.0 0.0570081001822106 0.0 0.0 0.0 0.1086599063778614 0.1405951871179448 0.022337753797962347 0.0 0.0026922508585032288 0.04286942392944735 0.14449237567283466 0.03923305914456699 0.15418936159688626 1:0.0 2:0.0 3:0.0 4:0.0 5:0.0 6:0.0 7:0.0 8:0.0 9:0.0 10:0.0 11:0.0 12:0.0 13:0.0 14:0.0 15:0.0 16:0.0 17:0.0 18:0.0 19:0.0 20:0.0 21:0.0 22:0.0 23:0.0 24:0.0 25:0.0 26:0.0 27:0.0 28:0.9994449019432068 29:0.0 30:0.0 31:0.0 32:0.0 33:0.0 34:0.0 35:0.0 36:0.0 37:0.0 38:0.0 39:0.0 40:0.0 41:7.63051793910563E-4 42:0.0 43:0.0 44:0.0 45:0.0 46:0.0 47:0.0 48:0.0 49:0.0 50:0.0 51:0.0 52:0.0 53:0.0 54:0.0 55:0.29249876737594604 56:0.0 57:0.0010791182285174727 58:0.0 59:0.2886503040790558 60:0.0 61:0.005395590327680111 62:0.10720063000917435 63:0.0 64:0.18504086136817932 65:0.11044103652238846 66:5.395591142587364E-4 67:0.0 68:0.8731255531311035 69:0.0 70:5.395591142587364E-4 71:0.0 72:0.1040022149682045 73:0.0 74:0.0 75:0.0 76:0.0 77:0.0 78:0.0 79:0.0 80:0.0 81:0.0 82:0.0 83:0.0 84:0.0 85:0.0 86:0.0 87:0.0 88:0.0 89:0.0 90:0.0 91:0.9950371980667114 92:0.0 93:0.0 94:0.0 95:0.0 96:0.0 97:0.0 98:0.0 99:0.0 100:0.0 101:0.0 102:0.0 103:0.0 104:0.0 105:0.0 106:0.0 107:0.0 108:0.0 109:0.0 110:0.0 111:0.0 112:0.0 113:0.0 114:0.0 115:0.0 116:0.0 117:0.0 118:0.0016097157495096326 119:0.0 120:0.0 121:0.0 122:0.003219431499019265 123:0.0 124:0.0 125:0.0 126:0.0 127:0.0016097157495096326 128:0.0 129:0.0 130:0.0 131:0.0 132:0.0 133:0.0 134:0.0 135:0.0 136:0.689706027507782 137:0.47869494557380676 138:0.5431830883026123 139:0.0 140:0.00965829472988844 141:0.0 142:0.0 143:0.0 144:0.0 145:0.17781420052051544 146:0.3953041732311249 147:0.07836636155843735 148:0.0 149:8.120386628434062E-4 150:0.0 151:0.0 152:0.0 153:0.019842540845274925 154:0.10672678798437119 155:0.02297377958893776 156:0.06040693074464798 157:0.008131151087582111 158:0.018328871577978134 159:0.024945233017206192 160:0.11791566014289856 161:0.38647595047950745 162:0.10316717624664307 163:0.22497905790805817 164:0.40007153153419495 165:0.08106154948472977 166:0.03259507194161415 167:0.31173816323280334 168:0.0 169:1.6405657515861094E-4 170:0.039051130414009094 171:0.0 172:0.0781601220369339 173:0.0 174:1.6405657515861094E-4 175:0.030615130439400673 176:0.5154188871383667 177:0.03190341591835022 178:0.08107390999794006 179:0.07317929714918137 180:0.11143236607313156 181:0.03843630477786064 182:0.0 183:0.0 184:0.0 185:0.0 186:0.0 187:0.0 188:0.08995682746171951 189:0.0 190:0.0 191:0.0 192:0.0 193:0.0 194:0.0 195:0.0 196:0.0 197:0.0 198:0.0 199:0.04583876579999924 200:0.0 201:5.226648645475507E-4 202:0.0 203:0.0040653785690665245 204:0.0 205:0.4988850951194763 206:0.7961697578430176 207:0.3248690366744995 208:0.0 209:0.0 210:0.0 211:0.0 212:0.0 213:0.0 214:0.0 215:0.0 216:0.0 217:0.0011024436680600047 218:0.0 219:0.0 220:0.0 221:0.0 222:0.0 223:0.0 224:0.0 225:0.0 226:0.3252370357513428 227:0.42426955699920654 228:0.41725844144821167 229:0.0 230:0.7257654070854187 231:0.0 232:7.795454002916813E-4 233:0.0 234:0.11564760655164719 235:0.0 236:0.0 237:0.0 238:0.0 239:0.0 240:0.0 241:0.0 242:0.0 243:0.0 244:0.0 245:0.0 246:0.0 247:0.0 248:0.0 249:0.0 250:0.0 251:0.0 252:0.0 253:0.5216430425643921 254:0.2942359745502472 255:0.18413525819778442 256:0.14957588911056519 257:0.5059506297111511 258:0.0 259:7.702069124206901E-4 260:0.0 261:0.14017976820468903 262:0.4248402714729309 263:0.0 264:0.0015404138248413801 265:0.0 266:0.08768358081579208 267:0.0 268:0.18685710430145264 269:0.29377248883247375 270:0.0 271:0.0 272:0.0 273:0.0 274:0.0 275:0.0 276:0.0 277:0.0 278:0.0 279:0.0 280:0.0 281:0.0 282:0.0 283:0.0 284:0.0 285:0.0 286:0.0 287:0.0 288:0.0 289:0.29191070795059204 290:0.0 291:0.0 292:0.05645328015089035 293:0.8779627084732056 294:0.08816517144441605 295:0.2955624759197235 296:0.17939357459545135 297:0.11606067419052124 298:3.225427935831249E-4 299:0.0 300:0.0 301:0.0 302:0.0 303:0.0 304:0.0 305:0.0 306:0.0 307:0.0 308:0.0 309:0.0 310:0.0 311:3.225427935831249E-4 312:0.0 313:0.0 314:0.0 315:0.0 316:0.0 317:0.0 318:0.0 319:0.0 320:0.0 321:0.0 322:0.0 323:0.0 324:0.0 
0.13488897873037972 0.04296778745735902 0.02819719786109671 0.1817523831397475 0.08965408897794003 0.026342019969030198 0.08657003649567978 0.0 0.07460718538615654 0.07627061171228469 0.24631492881916603 0.03800966685370893 0.08335461227999771 0.031976287979688676 0.07075073003376514 0.010036705318661703 0.0 0.0 0.0435996035883834 0.060028887381309126 0.059806579499830745 0.0 0.09262339307119505 0.04242852061852123 0.08374109383001618 1:0.0 2:0.0 3:0.0 4:0.0 5:0.0 6:0.0 7:0.0 8:0.0 9:0.0 10:0.0 11:0.0 12:0.0 13:0.0 14:0.0 15:0.0 16:0.0 17:0.0 18:0.0 19:0.0 20:0.0 21:0.0 22:0.0 23:0.0 24:0.0 25:0.0 26:0.0 27:0.0 28:0.0 29:0.0 30:0.0 31:0.0 32:0.0 33:0.0 34:0.0 35:0.0 36:0.0 37:0.0 38:0.0 39:0.0 40:0.0 41:1.891316205728799E-4 42:0.0 43:0.0 44:0.0 45:0.0 46:0.0 47:0.0 48:0.0 49:0.0 50:1.891316205728799E-4 51:0.0 52:0.0 53:0.0 54:0.0 55:0.18856458365917206 56:0.0 57:0.06369693577289581 58:0.054570287466049194 59:0.8715218305587769 60:0.054915137588977814 61:0.1185748353600502 62:4.229111655149609E-4 63:0.0064332555048167706 64:0.04936335235834122 65:0.059807032346725464 66:5.349449929781258E-4 67:0.0 68:0.3126349151134491 69:0.09113594889640808 70:0.06597115844488144 71:0.2185923010110855 72:0.1286298930644989 73:0.0 74:0.0 75:0.0 76:0.0 77:0.0 78:0.0 79:0.0 80:0.0 81:0.0 82:0.0 83:0.0 84:0.0 85:0.0 86:0.0 87:0.0 88:0.0 89:0.0 90:0.0 91:0.9987523555755615 92:0.0 93:0.0 94:0.0 95:0.0 96:0.0 97:0.0 98:0.0 99:0.0 100:0.0 101:0.0 102:0.0 103:0.0 104:0.0 105:0.0 106:0.0 107:0.0 108:0.0 109:0.0 110:0.0 111:0.0 112:0.0 113:0.0 114:0.0 115:0.0 116:0.0 117:0.0 118:0.0 119:0.0 120:0.0 121:0.0 122:0.002765761688351631 123:0.0 124:0.0 125:0.0 126:0.0 127:0.002765761688351631 128:0.0 129:0.0 130:0.0 131:0.0 132:0.0 133:0.0 134:0.0 135:0.0 136:0.6968103051185608 137:0.7161560654640198 138:0.007822755724191666 139:0.0 140:0.038720663636922836 141:0.0 142:0.0 143:0.0 144:0.0 145:0.2998081147670746 146:0.4004422128200531 147:0.0 148:0.0 149:4.550933081191033E-4 150:0.0 151:1.2871982471551746E-4 152:0.0 153:0.01392720639705658 154:0.10502560436725616 155:0.0543944276869297 156:0.0 157:0.0 158:2.730559790506959E-4 159:0.0 160:1.2871982471551746E-4 161:0.48807069659233093 162:0.1882210671901703 163:0.24050861597061157 164:0.2955743372440338 165:0.033080995082855225 166:0.0 167:0.24186034500598907 168:0.025447815656661987 169:1.2871982471551746E-4 170:0.0 171:0.034156545996665955 172:0.05611331760883331 173:0.0 174:0.026009932160377502 175:0.0 176:0.4917749762535095 177:0.02358015812933445 178:0.03301670029759407 179:0.07940609008073807 180:0.041286200284957886 181:0.0321466289460659 182:0.0 183:0.0 184:0.0 185:0.0037991469725966454 186:0.0 187:0.0016531707951799035 188:0.08223694562911987 189:0.050665032118558884 190:0.0 191:0.0 192:0.0 193:0.0 194:0.0 195:0.0 196:0.0 197:0.0 198:0.0 199:0.20224010944366455 200:0.0 201:8.265853975899518E-4 202:0.0 203:0.001753452350385487 204:0.0 205:0.0 206:0.9321305155754089 207:0.2825722396373749 208:5.84484136197716E-4 209:0.0 210:0.0 211:0.0 212:0.0 213:0.0 214:0.0 215:0.0 216:0.0 217:0.0 218:0.0 219:0.0 220:0.0 221:0.0 222:0.0 223:0.0 224:0.0 225:0.0 226:0.46888190507888794 227:0.0 228:0.38808074593544006 229:0.29697877168655396 230:0.6929396986961365 231:0.14689098298549652 232:0.19900742173194885 233:0.0 234:0.0 235:0.0 236:0.0 237:0.0 238:0.0 239:0.0 240:0.0 241:0.0 242:0.0 243:0.0 244:0.0 245:0.0 246:0.0 247:0.0 248:5.464823916554451E-4 249:0.0 250:0.0 251:0.0 252:0.0 253:0.19222891330718994 254:0.06225314363837242 255:8.373725577257574E-4 256:0.05704010650515556 257:0.8147470355033875 258:0.0 259:0.11631926149129868 260:0.06241219863295555 261:0.05042847990989685 262:0.12848924100399017 263:0.058524634689092636 264:0.11864785850048065 265:0.0 266:0.48040086030960083 267:0.0 268:0.06241219863295555 269:0.0586937852203846 270:0.0 271:0.0 272:0.0 273:0.0 274:0.0 275:1.9737060938496143E-4 276:0.0 277:0.0 278:0.0 279:0.0 280:0.0 281:0.0 282:0.0 283:0.0 284:1.9737060938496143E-4 285:0.0 286:0.0 287:0.0 288:0.0 289:0.32047364115715027 290:0.0 291:0.09282897412776947 292:0.0 293:0.920466423034668 294:0.0 295:0.1769951730966568 296:0.07915171980857849 297:0.06187688931822777 298:0.0 299:0.0 300:0.0 301:0.0 302:0.0 303:0.0 304:0.0 305:0.0 306:0.0 307:0.0 308:0.0 309:0.0 310:0.0 311:0.0 312:0.0 313:0.0 314:0.0 315:0.0 316:0.0 317:0.0 318:0.0 319:0.0 320:0.0 321:0.0 322:0.0 323:0.0 324:0.0 
0.1351781791709206 0.16149253993244492 0.18391440146397545 0.28372691430374264 0.2034995641278936 0.20848256228394124 0.3857058043408114 0.3951552902540733 0.25566754017879256 0.32830419927292864 0.3808877002585712 0.2833957472017856 0.33719670886342606 0.11287858006034766 0.18623839040280857 0.15770054959887064 0.2638946737261708 0.3000568379922306 0.15565633183191238 0.29835743955266364 0.21466070009374255 0.19745447832914761 0.14351208286107695 0.1476063619241163 0.16173376761944436 1:0.0 2:0.0 3:0.0 4:0.0 5:0.0 6:0.0 7:0.0 8:0.0 9:0.0 10:0.3160697817802429 11:0.0 12:0.0 13:0.0 14:0.0 15:0.0 16:0.0 17:0.0 18:0.0 19:0.0 20:0.0 21:0.0 22:0.0 23:0.0 24:0.0 25:0.0 26:0.0 27:0.0 28:0.948209285736084 29:0.0 30:0.0 31:0.0 32:0.0 33:0.0 34:0.0 35:0.0 36:0.0 37:0.013986988924443722 38:0.06401344388723373 39:6.592452409677207E-4 40:0.0 41:0.01398470439016819 42:0.0 43:0.0019777356646955013 44:0.0 45:0.0 46:0.030067114159464836 47:0.0 48:0.07611392438411713 49:0.0 50:0.266874760389328 51:0.06735965609550476 52:0.0013184904819354415 53:0.06735965609550476 54:0.0 55:0.5888159871101379 56:0.3230064809322357 57:0.0013184904819354415 58:0.0 59:0.0025638623628765345 60:0.0 61:6.592452409677207E-4 62:0.0 63:0.0 64:0.3246909976005554 65:0.0 66:9.888678323477507E-4 67:0.0 68:0.052908796817064285 69:0.0 70:0.0 71:0.25858601927757263 72:0.5313880443572998 73:0.0 74:0.0 75:0.0 76:0.0 77:0.0 78:0.0 79:0.0 80:0.0 81:0.0 82:0.0 83:0.0 84:0.0 85:0.0 86:0.0 87:0.0 88:0.0 89:0.0 90:0.0 91:0.9987523555755615 92:0.0 93:0.0 94:0.0 95:0.0 96:0.0 97:0.0 98:0.0 99:0.0 100:0.0 101:0.0 102:0.0 103:0.0 104:0.0 105:0.0 106:0.0 107:0.0 108:0.0 109:0.0 110:0.0 111:0.0 112:0.0 113:0.0 114:0.0 115:0.0 116:0.0 117:0.0 118:0.705345630645752 119:0.0 120:0.0 121:0.0 122:0.0 123:0.0 124:0.0 125:0.0 126:0.0 127:0.0 128:0.0 129:0.0 130:0.0 131:0.0 132:0.0 133:0.0 134:0.0 135:0.0 136:0.705345630645752 137:0.0 138:0.0 139:0.0 140:0.0 141:0.0 142:0.0 143:0.0 144:0.0 145:0.4164493680000305 146:0.09227754175662994 147:4.692508664447814E-4 148:0.0 149:8.848279830999672E-4 150:0.0 151:1.5641696518287063E-4 152:0.0 153:0.02632456086575985 154:0.45438501238822937 155:0.03037652000784874 156:0.0 157:0.005945902317762375 158:0.026655908674001694 159:0.0 160:0.0 161:0.12307819724082947 162:0.3690812289714813 163:0.4410785436630249 164:0.21463142335414886 165:3.1283393036574125E-4 166:0.0 167:0.026766277849674225 168:0.0 169:1.5641696518287063E-4 170:0.0349748469889164 171:0.03948606923222542 172:0.2806081473827362 173:0.034951403737068176 174:0.0 175:0.0 176:0.1958943009376526 177:0.0 178:0.0 179:0.15257097780704498 180:0.2685636579990387 181:0.001038036891259253 182:0.0 183:0.0 184:0.0 185:0.001038036891259253 186:0.0 187:0.0 188:0.0 189:0.0 190:0.0 191:0.0 192:0.0 193:0.0 194:0.0 195:0.0 196:0.0 197:0.0 198:0.0 199:0.5698866844177246 200:0.0 201:0.008808034472167492 202:0.0 203:0.012456442229449749 204:0.0 205:0.0014680058229714632 206:0.28508996963500977 207:0.7705288529396057 208:0.001038036891259253 209:0.0 210:0.0 211:0.0 212:0.0 213:0.0 214:0.0 215:0.0 216:0.0 217:0.0 218:0.0 219:0.0 220:0.0 221:0.0 222:0.0 223:0.0 224:0.0 225:0.0 226:0.9950371980667114 227:0.0 228:0.0 229:0.0 230:0.0 231:0.0 232:0.0 233:0.0 234:0.0 235:0.0 236:0.0 237:0.0 238:0.0 239:0.0 240:0.0 241:0.0 242:0.0 243:0.0 244:0.0 245:0.0 246:0.0 247:0.0 248:0.0 249:0.0 250:0.0 251:0.0 252:0.0 253:0.6512462496757507 254:0.330380916595459 255:0.11413295567035675 256:0.04578157886862755 257:0.340848833322525 258:0.0 259:2.4172528355848044E-4 260:0.04924674704670906 261:0.04666656628251076 262:0.12836511433124542 263:0.0 264:0.0 265:0.0 266:0.47979071736335754 267:0.045109137892723083 268:0.11353275179862976 269:0.09504205733537674 270:0.245334655046463 271:0.0 272:0.0 273:0.0 274:0.0 275:1.709255884634331E-4 276:0.0 277:0.0 278:0.0 279:0.0 280:0.0 281:0.0 282:0.0 283:0.0 284:3.418511769268662E-4 285:0.0 286:0.0 287:0.0 288:0.0 289:0.3927224278450012 290:0.1417677104473114 291:0.0 292:0.0 293:0.3606465458869934 294:0.0 295:0.0 296:0.5213128924369812 297:0.6510282754898071 298:0.0 299:0.0 300:0.0 301:0.0 302:0.0 303:0.0 304:0.0 305:0.0 306:0.0 307:0.0 308:0.0 309:0.0 310:0.0 311:0.0 312:0.0 313:0.0 314:0.0 315:0.0 316:0.0 317:0.0 318:0.0 319:0.0 320:0.0 321:0.0 322:0.0 323:0.0 324:0.0 
0.0 0.0 0.0 0.0 0.0 0.0 0.0 0.0 0.0 0.0 0.0 0.0 0.0 0.0 0.0 0.0 0.0 0.005550971331587407 0.0 0.0 0.0 0.0 0.0 0.0 0.0 1:0.0 2:0.0 3:0.0 4:0.0 5:0.0 6:0.0 7:0.0 8:0.0 9:0.0 10:0.0 11:0.0 12:0.0 13:0.0 14:0.0 15:0.0 16:0.0 17:0.0 18:0.0 19:0.0 20:0.0 21:0.0 22:0.0 23:0.0 24:0.0 25:0.0 26:0.0 27:0.0 28:0.9987523555755615 29:0.0 30:0.0 31:0.0 32:0.0 33:0.0 34:0.0 35:0.0 36:0.0 37:0.0 38:0.0 39:0.0 40:0.0 41:0.036573171615600586 42:0.0 43:0.0 44:0.0 45:0.0 46:0.0 47:0.0 48:0.0 49:0.0 50:0.21451982855796814 51:0.0 52:0.0 53:0.0 54:0.0 55:0.3850150406360626 56:0.5519456267356873 57:0.07743217051029205 58:0.0 59:0.0014971473719924688 60:0.0 61:3.0246941605582833E-4 62:0.0 63:0.0036422142293304205 64:0.15677271783351898 65:0.06542925536632538 66:0.08001336455345154 67:0.05748908966779709 68:0.16416621208190918 69:0.04412789270281792 70:0.07773464173078537 71:0.5469323992729187 72:0.348009318113327 73:0.0 74:0.0 75:0.0 76:0.0 77:0.0 78:0.0 79:0.0 80:0.0 81:0.0 82:0.0 83:0.0 84:0.0 85:0.0 86:0.0 87:0.0 88:0.0 89:0.0 90:0.0 91:0.49937617778778076 92:0.0 93:0.0 94:0.0 95:0.49937617778778076 96:0.0 97:0.7062245607376099 98:0.0 99:0.0 100:0.0 101:0.0 102:0.0 103:0.0 104:0.0 105:0.0 106:0.0 107:0.0 108:0.0 109:0.0 110:0.0 111:0.0 112:0.0 113:0.0 114:0.0 115:0.0 116:0.0 117:0.0 118:4.485071694944054E-4 119:0.0 120:0.0 121:0.0 122:4.485071694944054E-4 123:0.0 124:0.0 125:0.0 126:0.0 127:4.485071694944054E-4 128:0.0 129:0.0 130:0.0 131:0.0 132:0.0 133:0.0 134:0.0 135:0.0 136:0.4459899961948395 137:0.8947384357452393 138:0.002537139691412449 139:0.0 140:0.0022425358183681965 141:0.0 142:6.342849228531122E-4 143:0.0 144:0.022878263145685196 145:0.25262656807899475 146:0.48319411277770996 147:1.2228278501424938E-4 148:0.0 149:3.458679420873523E-4 150:0.0 151:1.2228278501424938E-4 152:0.0 153:0.013231083750724792 154:0.10942615568637848 155:0.0 156:2.4456557002849877E-4 157:0.0 158:2.594009565655142E-4 159:0.0 160:1.2228278501424938E-4 161:0.2811509668827057 162:0.19014044106006622 163:0.13001233339309692 164:0.17928144335746765 165:0.029234154149889946 166:0.0 167:0.41123801469802856 168:0.024331817403435707 169:3.668483404908329E-4 170:0.0 171:0.02517409808933735 172:0.06528689712285995 173:0.0 174:0.0 175:0.024253487586975098 176:0.584863543510437 177:0.0 178:0.030223971232771873 179:0.07718519866466522 180:0.03640671446919441 181:0.13472259044647217 182:0.0 183:0.0 184:0.0 185:0.001666636555455625 186:0.0 187:0.0023569799959659576 188:0.4054511785507202 189:0.16935373842716217 190:0.0 191:0.0 192:0.0 193:0.0 194:0.0 195:0.0 196:0.0 197:0.0 198:0.0 199:0.19083330035209656 200:0.0 201:3.928299993276596E-4 202:0.0 203:0.006111000664532185 204:0.0 205:3.928299993276596E-4 206:0.8026900291442871 207:0.3286393880844116 208:0.0 209:0.0 210:0.0 211:0.0 212:0.0 213:0.0 214:0.0 215:0.0 216:0.0 217:2.2767177142668515E-4 218:0.0 219:0.0 220:0.0 221:0.0 222:0.0 223:0.0 224:0.0 225:0.0 226:0.5445407629013062 227:0.7961187362670898 228:0.08053582906723022 229:0.06252855062484741 230:0.0591946616768837 231:0.0 232:0.06397181004285812 233:0.0 234:0.03439011052250862 235:0.0 236:0.0 237:0.0 238:0.0 239:0.0 240:0.0 241:0.0 242:0.0 243:0.0 244:0.0 245:0.0 246:0.0 247:0.0 248:0.2247120440006256 249:0.0 250:0.0 251:0.0 252:0.0 253:0.5033162832260132 254:0.85711270570755 255:0.0016396973514929414 256:0.0 257:0.0046377647668123245 258:0.0 259:8.198486757464707E-4 260:0.0 261:0.0 262:0.10956718772649765 263:0.0 264:0.0 265:0.0 266:5.797205958515406E-4 267:0.0 268:0.0 269:0.0 270:0.0 271:0.0 272:0.0 273:0.0 274:0.0 275:5.797205958515406E-4 276:0.0 277:0.0 278:0.0 279:0.0 280:0.0 281:0.0 282:0.0 283:0.0 284:0.0 285:0.0 286:0.0 287:0.0 288:0.0 289:0.21341164410114288 290:0.0 291:0.0 292:0.05367180332541466 293:0.09571834653615952 294:0.0 295:0.06708250194787979 296:0.8173184394836426 297:0.47479864954948425 298:0.028832729905843735 299:0.0 300:0.0 301:0.0 302:0.0 303:0.0 304:0.0 305:0.0 306:0.0 307:0.0 308:0.0 309:0.0 310:0.0 311:0.20889778435230255 312:0.0 313:0.0 314:0.0 315:0.0 316:0.0 317:0.0 318:0.0 319:0.0 320:0.0 321:0.0 322:0.0 323:0.0 324:0.0 
-0.0 0.060688237562404705 0.0 0.5716437413051595 0.0 0.14961826621786833 0.0 0.0 0.0 0.0 0.0 0.0 0.0 0.13133584791541122 0.0 0.03535525172511031 0.0 0.046020201260097184 0.0 0.0 0.0 0.0 0.015600949016169603 0.0 0.0 1:0.0 2:0.0 3:0.0 4:0.0 5:0.0 6:0.0 7:0.0 8:0.0 9:0.0 10:0.0 11:0.0 12:0.0 13:0.0 14:0.0 15:0.0 16:0.0 17:0.0 18:0.0 19:6.943232729099691E-4 20:0.0 21:0.0 22:0.0 23:0.0 24:0.0 25:0.0 26:0.0 27:0.0 28:0.3061206042766571 29:0.10507763177156448 30:0.21832194924354553 31:0.01833394728600979 32:0.6802384853363037 33:0.38832393288612366 34:0.45709654688835144 35:0.12811262905597687 36:0.0915309339761734 37:0.0 38:0.0 39:0.0 40:0.0 41:1.7047183064278215E-4 42:0.0 43:0.0 44:0.0 45:0.0 46:0.0 47:0.0 48:0.0 49:0.0 50:0.0 51:0.0 52:0.0 53:0.0 54:0.0 55:0.004261795897036791 56:0.04017496854066849 57:0.1121894121170044 58:0.09283469617366791 59:0.5593203902244568 60:0.044989388436079025 61:2.410835586488247E-4 62:0.0 63:0.0 64:8.523591095581651E-4 65:0.0 66:2.410835586488247E-4 67:0.09336696565151215 68:0.7854612469673157 69:0.14329151809215546 70:0.1268843114376068 71:0.0 72:0.0 73:0.0 74:0.0 75:0.0 76:0.0 77:0.0 78:0.0 79:0.0 80:0.0 81:0.0 82:0.0 83:0.0 84:0.0 85:0.0 86:0.0 87:0.0 88:0.0 89:0.0 90:0.0 91:0.15966875851154327 92:0.0 93:0.0 94:0.0 95:0.2169203758239746 96:0.45060300827026367 97:0.63632732629776 98:0.5598157644271851 99:0.07811670005321503 100:0.0 101:0.0 102:0.0 103:0.0 104:0.0 105:0.0 106:0.0 107:0.0 108:0.0 109:4.6295617357827723E-4 110:0.0 111:0.0 112:0.0 113:0.0 114:0.0 115:0.0 116:0.0 117:0.0 118:0.3835611343383789 119:0.0 120:9.820782579481602E-4 121:0.0 122:0.009953557513654232 123:0.0 124:0.15759733319282532 125:0.06517372280359268 126:0.3625503182411194 127:0.0 128:0.0 129:0.0 130:0.0 131:0.0 132:0.0 133:0.0 134:0.0 135:0.0 136:0.8304434418678284 137:0.0 138:0.0 139:0.0 140:2.3147808678913862E-4 141:0.0 142:0.0 143:0.0 144:0.05115718021988869 145:0.4431692361831665 146:0.10283917933702469 147:0.0 148:0.0 149:0.08592420816421509 150:0.0 151:0.07099703699350357 152:0.06999553740024567 153:0.14519217610359192 154:0.23415043950080872 155:0.1368362158536911 156:0.1651039570569992 157:0.1309189796447754 158:0.385968416929245 159:0.0 160:0.05675159767270088 161:0.13717545568943024 162:0.03635331615805626 163:0.3104267120361328 164:0.07007668912410736 165:0.07086551189422607 166:0.0 167:0.08592583239078522 168:0.0 169:0.0010014986619353294 170:0.0 171:0.2618289887905121 172:0.11684834957122803 173:0.06822004169225693 174:0.0 175:0.0 176:0.39067304134368896 177:0.15509305894374847 178:0.2262263298034668 179:0.1606893390417099 180:0.10059019923210144 181:0.405332088470459 182:0.27762043476104736 183:0.4275639057159424 184:0.11952584981918335 185:0.02857956849038601 186:0.04922351986169815 187:0.0697055235505104 188:0.07425206154584885 189:0.16618043184280396 190:3.1406120979227126E-4 191:0.0 192:0.0 193:0.0 194:0.0 195:0.0 196:0.0 197:0.0 198:0.0 199:0.34998947381973267 200:0.0 201:8.882991969585419E-4 202:0.0 203:0.04585293307900429 204:0.11226926743984222 205:0.411760538816452 206:0.36866387724876404 207:0.2786520719528198 208:6.281224195845425E-4 209:0.0 210:0.0 211:0.0 212:0.0 213:0.0 214:0.0 215:0.0 216:0.0 217:0.0 218:0.0 219:0.0 220:0.0 221:0.0 222:0.0 223:0.0 224:0.0 225:0.0 226:0.20787227153778076 227:0.18179218471050262 228:0.3543737232685089 229:0.07459364086389542 230:0.8382759094238281 231:0.08694928884506226 232:0.17477723956108093 233:0.0840751901268959 234:0.2114545851945877 235:0.0 236:0.0 237:0.0 238:0.0 239:0.0 240:0.0 241:0.0 242:0.0 243:0.0 244:0.0 245:0.0 246:0.0 247:0.0 248:5.569909117184579E-4 249:0.0 250:0.0 251:0.0 252:0.0 253:0.017500367015600204 254:0.0 255:0.0 256:0.0 257:0.597148060798645 258:0.0 259:0.10104063898324966 260:0.0411858931183815 261:0.0 262:0.008252205327153206 263:0.05541626363992691 264:0.12817159295082092 265:0.12043652683496475 266:0.7716538906097412 267:0.04099326208233833 268:6.03640335611999E-4 269:0.0 270:0.0 271:0.0 272:0.0 273:0.0 274:0.0 275:2.845588023774326E-4 276:0.0 277:0.0 278:0.0 279:0.0 280:0.0 281:0.0 282:0.0 283:0.0 284:0.0 285:0.0 286:0.0 287:0.0 288:0.0 289:0.3277535140514374 290:0.36356720328330994 291:0.7474529147148132 292:0.41825464367866516 293:0.16362574696540833 294:0.0 295:5.602549645118415E-4 296:0.0 297:0.0 298:0.0 299:0.0 300:0.0 301:0.0 302:0.0 303:0.0 304:0.0 305:0.0 306:0.0 307:0.0 308:0.0 309:0.0 310:0.0 311:3.961600596085191E-4 312:0.0 313:0.0 314:0.0 315:0.0 316:0.0 317:0.0 318:0.0 319:0.0 320:0.0 321:0.0 322:0.0 323:0.0 324:0.0 
-0.08118089412089405 0.14245271097627063 0.3204364636453654 0.0753957080799553 0.0 0.06987052365852753 0.074054799424205 0.030542111658898904 0.08609813035873913 0.0 0.025583649352460734 0.04380292960523166 0.08613971783570733 0.14052008415258407 0.08445225791544063 0.10593426333598671 0.0 0.17735685398021342 0.0 0.1867526421880221 0.0 0.08998970531413235 0.0 0.0 0.026797808537060867 1:0.0 2:0.0 3:0.0 4:0.0 5:0.0 6:0.0 7:0.0 8:0.0 9:0.0 10:0.0 11:0.0 12:0.0 13:0.0 14:7.131353486329317E-4 15:0.0 16:0.0 17:0.0 18:0.0 19:0.0 20:0.0 21:0.0 22:0.0 23:0.0 24:0.0 25:0.0 26:0.0 27:0.0 28:0.8875019550323486 29:0.11246587336063385 30:0.0 31:0.09375763684511185 32:0.3415941894054413 33:0.0 34:0.0 35:0.0 36:0.2724226415157318 37:0.0 38:0.0 39:0.0 40:0.0 41:1.193284333567135E-4 42:0.0 43:0.0 44:0.0 45:0.0 46:0.0 47:0.0 48:0.0 49:0.0 50:2.38656866713427E-4 51:0.0 52:0.0 53:0.0 54:0.0 55:0.0838882103562355 56:0.037733834236860275 57:0.0 58:0.03149208426475525 59:0.7221766114234924 60:0.0 61:1.6875588335096836E-4 62:0.0 63:0.0 64:0.016586652025580406 65:0.0 66:0.0 67:0.0 68:0.6529673337936401 69:0.1319635659456253 70:0.1579626500606537 71:0.0 72:0.0 73:0.0 74:0.0 75:0.0 76:0.0 77:0.0 78:0.0 79:0.0 80:0.0 81:0.0 82:0.0 83:0.0 84:0.0 85:0.0 86:0.0 87:0.0 88:0.0 89:0.0 90:0.0 91:0.25567930936813354 92:0.0 93:0.0 94:0.0 95:0.0340651199221611 96:0.3654519319534302 97:0.7522745728492737 98:0.4166161119937897 99:0.24581600725650787 100:9.331030305474997E-4 101:0.0 102:0.0 103:0.0 104:0.0 105:0.0 106:0.0 107:0.0 108:0.0 109:0.0 110:0.0 111:0.0 112:0.0 113:0.0 114:0.0 115:0.0 116:0.0 117:0.0 118:0.7131456732749939 119:0.0 120:0.0 121:0.0 122:0.0 123:0.0 124:0.0 125:0.0 126:0.0 127:0.0 128:0.0 129:0.0 130:0.0 131:0.0 132:0.0 133:0.0 134:0.0 135:0.0 136:0.7009150981903076 137:0.0 138:0.0 139:0.0 140:0.0 141:0.0 142:0.0 143:0.0 144:0.011881201528012753 145:0.27761775255203247 146:0.0 147:4.901493666693568E-4 148:0.0 149:0.34294912219047546 150:0.04573418200016022 151:0.0 152:0.054696425795555115 153:0.10865659266710281 154:0.2010210156440735 155:0.04876494035124779 156:0.231609508395195 157:0.045031435787677765 158:0.3717174530029297 159:0.0 160:2.450746833346784E-4 161:0.04876494035124779 162:0.0 163:0.42994314432144165 164:0.05479872599244118 165:0.0 166:0.045779138803482056 167:0.34173572063446045 168:0.0 169:0.0 170:0.0 171:0.04419030621647835 172:0.09136097878217697 173:0.051533907651901245 174:7.352240500040352E-4 175:0.0 176:0.42491814494132996 177:0.06993719935417175 178:0.16776834428310394 179:0.09327375143766403 180:0.08621133118867874 181:0.47202253341674805 182:0.35413724184036255 183:0.20132464170455933 184:0.0 185:0.0019400619203224778 186:0.05903591215610504 187:0.0 188:0.0746547132730484 189:0.1412295550107956 190:5.543034058064222E-4 191:0.0 192:0.0 193:0.0 194:0.0 195:0.0 196:0.0 197:0.0 198:0.0 199:0.6088615655899048 200:0.0 201:3.9195167482830584E-4 202:0.0 203:0.010531764477491379 204:0.0464036725461483 205:0.27109628915786743 206:0.3049405515193939 207:0.2068396657705307 208:2.771517029032111E-4 209:0.0 210:0.0 211:0.0 212:0.0 213:0.0 214:0.0 215:0.0 216:0.0 217:0.0 218:0.0 219:0.0 220:0.0 221:0.0 222:0.0 223:0.0 224:0.0 225:0.0 226:0.8875019550323486 227:0.0 228:0.0 229:0.0 230:0.3415941894054413 231:0.09375763684511185 232:0.0 233:0.11246587336063385 234:0.2724226713180542 235:0.0 236:0.0 237:0.0 238:0.0 239:0.0 240:0.0 241:0.0 242:0.0 243:0.0 244:0.0 245:0.0 246:0.0 247:0.0 248:7.131353486329317E-4 249:0.0 250:0.0 251:0.0 252:0.0 253:0.06043224781751633 254:0.0 255:1.659490808378905E-4 256:0.0 257:0.7102825045585632 258:0.03096829727292061 259:0.0 260:0.0371062308549881 261:0.02194358967244625 262:7.040623459033668E-4 263:0.026816314086318016 264:0.11251566559076309 265:0.14632369577884674 266:0.6739727854728699 267:0.0 268:1.659490808378905E-4 269:0.0 270:0.0 271:0.0 272:0.0 273:0.0 274:0.0 275:1.17343726742547E-4 276:0.0 277:0.0 278:0.0 279:0.0 280:0.0 281:0.0 282:0.0 283:0.0 284:0.0 285:0.0 286:0.0 287:0.0 288:0.0 289:0.23528972268104553 290:0.6366093158721924 291:0.6735937595367432 292:0.28269001841545105 293:0.07259107381105423 294:0.0 295:0.0 296:0.0 297:0.02132924646139145 298:8.202040335163474E-4 299:0.0 300:0.0 301:0.0 302:0.0 303:0.0 304:0.0 305:0.0 306:0.0 307:0.0 308:0.0 309:0.0 310:0.0 311:4.101020167581737E-4 312:0.0 313:0.0 314:0.0 315:0.0 316:0.0 317:0.0 318:0.0 319:0.0 320:0.0 321:0.0 322:0.0 323:0.0 324:0.0 
-0.0 0.0 0.0 0.0 0.0 0.0 0.0 0.0 0.0 0.011174135900550499 0.0 0.0 0.0 0.0 0.0 0.0 0.03713595012431802 0.0 0.0 0.0 0.0 0.0 0.0 0.0 0.020571568951596075 1:0.0 2:0.0 3:0.0 4:0.0 5:0.0 6:0.0 7:0.0 8:0.0 9:0.0 10:0.0 11:0.0 12:0.0 13:0.0 14:0.0 15:0.0 16:0.0 17:0.0 18:0.0 19:0.0 20:0.0 21:0.0 22:0.0 23:0.0 24:0.0 25:0.0 26:0.0 27:0.0 28:0.8360788822174072 29:0.10333386063575745 30:0.0 31:0.08646121621131897 32:0.48028436303138733 33:7.325696060433984E-4 34:9.266353445127606E-4 35:7.325696060433984E-4 36:0.22834986448287964 37:0.0 38:0.0 39:0.0 40:0.0 41:1.1704299686243758E-4 42:0.0 43:0.0 44:0.0 45:0.0 46:0.0 47:0.0 48:0.0 49:0.0 50:0.0 51:0.0 52:0.0 53:0.0 54:0.0 55:0.09448374062776566 56:0.0 57:0.03941847383975983 58:0.0 59:0.8099391460418701 60:0.0 61:3.310475731268525E-4 62:0.0 63:0.0 64:8.19300941657275E-4 65:0.0 66:1.6552378656342626E-4 67:0.0 68:0.5194377303123474 69:0.16385647654533386 70:0.19130843877792358 71:0.0 72:0.015918277204036713 73:0.0 74:0.0 75:0.0 76:0.0 77:5.03613380715251E-4 78:0.0 79:0.0 80:0.0 81:0.0 82:0.0 83:0.0 84:0.0 85:0.0 86:0.0 87:0.0 88:0.0 89:0.0 90:0.0 91:0.20750443637371063 92:0.0 93:7.122168899513781E-4 94:0.0 95:0.05539747327566147 96:0.0 97:0.7239730358123779 98:0.6007025837898254 99:0.2624719738960266 100:5.03613380715251E-4 101:0.0 102:0.0 103:0.0 104:0.0 105:0.0 106:0.0 107:0.0 108:0.0 109:0.0 110:0.0 111:0.0 112:0.0 113:0.0 114:0.0 115:0.0 116:0.0 117:0.0 118:0.6832373738288879 119:0.0 120:0.0 121:0.0 122:0.0 123:0.0 124:0.0 125:0.0 126:0.04553760588169098 127:0.0 128:0.0 129:0.0 130:0.0 131:0.0 132:0.0 133:0.0 134:0.0 135:0.0 136:0.7287750244140625 137:0.0 138:0.0 139:0.0 140:0.0 141:0.0 142:0.0 143:0.0 144:0.0 145:0.22169145941734314 146:0.0 147:2.263645874336362E-4 148:0.0 149:0.45570266246795654 150:0.0 151:0.05366535857319832 152:0.0 153:0.1524243950843811 154:0.2183331847190857 155:0.04597625881433487 156:0.21192607283592224 157:0.042872339487075806 158:0.25978609919548035 159:0.0 160:4.527291748672724E-4 161:0.04489700496196747 162:0.002885593567043543 163:0.41472628712654114 164:0.0 165:0.05436006933450699 166:0.0 167:0.454902321100235 168:0.0 169:0.0 170:0.0 171:0.040816619992256165 172:0.19436053931713104 173:0.05061514303088188 174:4.527291748672724E-4 175:0.0 176:0.2894292175769806 177:0.138802170753479 178:0.1008843183517456 179:0.10059218853712082 180:0.06166668236255646 181:0.3214137554168701 182:0.4587387144565582 183:0.29741889238357544 184:0.03511183336377144 185:0.03320315107703209 186:0.08697923272848129 187:8.742513600736856E-4 188:0.08003579080104828 189:0.13090291619300842 190:0.0 191:0.0 192:0.0 193:0.0 194:0.0 195:0.0 196:0.0 197:0.0 198:0.0 199:0.4279402196407318 200:0.0 201:0.0 202:0.0 203:0.043582331389188766 204:0.0 205:0.42184191942214966 206:0.3897992968559265 207:0.2223166972398758 208:3.090945538133383E-4 209:0.0 210:0.0 211:0.0 212:0.0 213:0.0 214:0.0 215:0.0 216:0.0 217:0.0 218:0.0 219:0.0 220:0.0 221:0.0 222:0.0 223:0.0 224:0.0 225:0.0 226:0.7729024291038513 227:7.746558403596282E-4 228:9.798707906156778E-4 229:7.746558403596282E-4 230:0.5078767538070679 231:0.09142842888832092 232:0.0 233:0.10927041620016098 234:0.35267800092697144 235:0.0 236:0.0 237:0.0 238:0.0 239:0.0 240:0.0 241:0.0 242:0.0 243:0.0 244:0.0 245:0.0 246:0.0 247:0.0 248:0.0 249:0.0 250:0.0 251:0.0 252:0.0 253:0.06164407357573509 254:0.0 255:3.164351510349661E-4 256:0.0 257:0.774076521396637 258:0.0 259:0.037678543478250504 260:0.0 261:0.02878103405237198 262:0.008614507503807545 263:0.03646460175514221 264:0.11036283522844315 265:0.12672190368175507 266:0.6042474508285522 267:0.0 268:0.0 269:0.0 270:0.0 271:0.0 272:0.0 273:0.0 274:0.0 275:1.1187671771040186E-4 276:0.0 277:0.0 278:0.0 279:0.0 280:0.0 281:0.0 282:0.0 283:0.0 284:0.0 285:0.0 286:0.0 287:0.0 288:0.0 289:0.29698485136032104 290:0.49384361505508423 291:0.7776527404785156 292:0.2456090897321701 293:0.05338696017861366 294:0.0 295:6.088755326345563E-4 296:0.0 297:0.0 298:4.305400070734322E-4 299:0.0 300:0.0 301:0.0 302:0.0 303:0.0 304:0.0 305:0.0 306:0.0 307:0.0 308:0.0 309:0.0 310:0.0 311:4.305400070734322E-4 312:0.0 313:0.0 314:0.0 315:0.0 316:0.0 317:0.0 318:0.0 319:0.0 320:0.0 321:0.0 322:0.0 323:0.0 324:0.0 
-0.0 0.1128544418497278 0.0 0.11796250698319868 0.07611005289006417 0.09003592201672929 0.07634159665194275 0.09832770038023246 0.0 0.10579701582498471 0.0 0.054653703331158446 0.0 0.0 0.16477104495345046 0.01706118138254881 0.2790589077166974 0.2065257819146953 0.12927847069114573 0.024069872953525386 0.03009480422126933 0.0 0.08485727383895166 0.08117635152087146 0.20558132664549975 1:0.0 2:0.0 3:0.0 4:0.0 5:0.0 6:0.0 7:0.0 8:0.0 9:0.0 10:0.0 11:0.0 12:0.0 13:0.0 14:3.6853287019766867E-4 15:0.0 16:0.0 17:0.0 18:0.0 19:3.6853287019766867E-4 20:0.0 21:0.0 22:0.0 23:0.0 24:0.0 25:0.0 26:0.0 27:0.0 28:0.6578445434570312 29:0.0 30:0.1269637942314148 31:0.0 32:0.6475640535354614 33:0.0 34:0.0015635524177923799 35:0.0 36:0.3630133867263794 37:0.0 38:0.0 39:0.0 40:0.0 41:0.0 42:0.0 43:0.0 44:0.0 45:0.0 46:0.0 47:0.0 48:0.0 49:0.0 50:0.0 51:0.0 52:0.0 53:0.0 54:0.0 55:1.7850285803433508E-4 56:0.0 57:0.0 58:0.0 59:0.7286490201950073 60:0.0 61:0.0 62:0.0 63:0.0 64:1.7850285803433508E-4 65:0.0 66:0.0 67:0.0 68:0.6831304430961609 69:0.04902463033795357 70:0.0 71:0.0 72:0.0 73:0.0 74:0.0 75:0.0 76:0.0 77:4.084747051820159E-4 78:0.0 79:0.0 80:0.0 81:0.0 82:0.0 83:0.0 84:0.0 85:0.0 86:0.0 87:0.0 88:0.0 89:0.0 90:0.0 91:0.04411526769399643 92:0.0 93:0.0011553409276530147 94:0.0 95:0.252849817276001 96:0.23299400508403778 97:0.8281185030937195 98:0.38450947403907776 99:0.21495427191257477 100:0.0 101:0.0 102:0.0 103:0.0 104:0.0 105:0.0 106:0.0 107:0.0 108:0.0 109:0.0 110:0.0 111:0.0 112:0.0 113:0.0 114:0.0 115:0.0 116:0.0 117:0.0 118:0.7071067690849304 119:0.0 120:0.0 121:0.0 122:1.7322557687293738E-4 123:0.0 124:0.0 125:0.0 126:0.0 127:0.0 128:0.0 129:0.0 130:0.0 131:0.0 132:0.0 133:0.0 134:0.0 135:0.0 136:0.7071067690849304 137:0.0 138:0.0 139:0.0 140:0.0 141:0.0 142:0.0 143:0.0 144:0.0 145:0.1658434271812439 146:0.05265355855226517 147:5.17740729264915E-4 148:0.051587674766778946 149:0.33077025413513184 150:0.051587674766778946 151:5.17740729264915E-4 152:0.05265355855226517 153:0.07157319039106369 154:0.06532014161348343 155:0.06662189215421677 156:0.06384947896003723 157:0.05298754572868347 158:0.6970586776733398 159:0.05273972079157829 160:0.06409994512796402 161:0.06647713482379913 162:0.06470506638288498 163:0.2809802293777466 164:0.05273972079157829 165:0.0 166:0.051510006189346313 167:0.16584239900112152 168:0.0 169:0.00103548145852983 170:0.0 171:0.024895338341593742 172:0.10420187562704086 173:0.05290115997195244 174:0.046778466552495956 175:0.0 176:0.4047243893146515 177:0.047601889818906784 178:0.18011613190174103 179:0.05273972079157829 180:0.021783601492643356 181:0.6139687299728394 182:0.21691377460956573 183:0.3525928556919098 184:0.048684012144804 185:0.019729796797037125 186:0.0 187:0.0015499122673645616 188:0.0 189:0.07052206993103027 190:2.739883784670383E-4 191:0.0 192:0.0 193:0.0 194:0.0 195:0.0 196:0.0 197:0.0 198:0.0 199:0.1166001409292221 200:0.0 201:0.0011624341132119298 202:0.0 203:0.047677814960479736 204:0.10438062995672226 205:0.5113667845726013 206:0.3100145161151886 207:0.13252030313014984 208:0.20494329929351807 209:0.0 210:0.0 211:0.0 212:0.0 213:0.0 214:0.0 215:0.0 216:0.0 217:0.0 218:0.0 219:0.0 220:0.0 221:0.0 222:0.0 223:0.0 224:0.0 225:0.0 226:0.9464039206504822 227:0.0 228:0.0 229:0.0 230:0.1914917230606079 231:0.0 232:0.08421806246042252 233:0.0 234:0.0 235:0.0 236:0.0 237:0.0 238:0.0 239:0.0 240:0.0 241:0.0 242:0.0 243:0.0 244:0.0 245:0.0 246:0.0 247:0.0 248:0.24608498811721802 249:0.0 250:0.0 251:0.0 252:0.0 253:0.025587011128664017 254:0.0 255:0.0 256:0.0 257:0.5239889621734619 258:0.05000002309679985 259:7.538452628068626E-4 260:0.05135039985179901 261:0.0 262:0.0012437812983989716 263:0.019341351464390755 264:0.11089276522397995 265:0.14954783022403717 266:0.6625810861587524 267:0.0 268:0.0012564088683575392 269:0.0 270:0.0 271:0.0 272:0.0 273:0.0 274:0.0 275:0.3622957170009613 276:0.0 277:0.0 278:0.0 279:0.0 280:0.0 281:0.0 282:0.0 283:0.0 284:0.3381308317184448 285:0.0 286:0.0 287:0.0 288:0.0 289:0.239079087972641 290:0.4468922019004822 291:0.7267365455627441 292:0.2945956289768219 293:0.30759620666503906 294:0.0 295:0.0 296:0.0 297:0.01872868835926056 298:0.15640956163406372 299:0.0 300:0.0 301:0.0 302:0.0 303:0.0 304:0.0 305:0.0 306:0.0 307:0.0 308:0.0 309:0.0 310:0.0 311:0.09362544119358063 312:0.0 313:0.0 314:0.0 315:0.0 316:0.0 317:0.0 318:0.0 319:0.0 320:0.0 321:0.0 322:0.0 323:0.0 324:0.0 
-0.04393059624015982 0.1667700866923282 0.32535446601902646 0.0 0.10569414615362753 0.17370498569610698 0.013118940561386275 0.13794397702822664 0.15088170142188462 0.015249725133769895 0.09556574883107459 0.031023473518545595 0.024425571880114568 0.14455611299302956 0.17057509101049784 0.08603902970989265 0.03532191130026366 0.2895689905384002 0.1155010209612272 0.06004214452697368 0.12373082671176934 0.15940891785718772 0.0 0.10348494847218942 0.023015483266318162 1:0.0 2:0.0 3:0.0 4:0.0 5:0.0 6:0.0 7:0.0 8:0.0 9:0.0 10:0.0 11:0.0 12:0.0 13:0.0 14:0.001855705282650888 15:0.0 16:0.0 17:0.0 18:0.0 19:0.001855705282650888 20:0.0 21:0.0 22:0.0 23:0.0 24:0.0 25:0.0 26:0.0 27:0.0 28:0.6344860196113586 29:0.40768539905548096 30:0.0026243634056299925 31:0.0 32:0.011134231463074684 33:0.0 34:0.005248726811259985 35:0.0 36:0.6565476059913635 37:0.0 38:0.0 39:0.0 40:0.0 41:0.0 42:0.0 43:0.0 44:0.0 45:0.0 46:0.0 47:0.0 48:0.0 49:0.0 50:1.7174177628476173E-4 51:0.0 52:0.0 53:0.0 54:0.0 55:0.09797614812850952 56:0.048328153789043427 57:0.33638185262680054 58:0.374642550945282 59:0.27805477380752563 60:0.0 61:0.043646007776260376 62:0.0 63:0.0 64:5.152253434062004E-4 65:0.0 66:4.8575911205261946E-4 67:0.0 68:0.6400089859962463 69:0.259086012840271 70:0.4214271903038025 71:0.03158041462302208 72:0.0 73:0.0 74:0.0 75:0.0 76:0.0 77:0.0 78:0.0 79:0.0 80:0.0 81:0.0 82:0.0 83:0.0 84:0.0 85:0.0 86:0.0 87:0.0 88:0.0 89:0.0 90:0.0 91:0.0336793027818203 92:0.0 93:0.0010824938071891665 94:0.0 95:0.008419825695455074 96:0.04114900529384613 97:0.7505123615264893 98:0.6128590703010559 99:0.2413148432970047 100:0.001530877430923283 101:0.0 102:0.0 103:0.0 104:0.0 105:0.0 106:0.0 107:0.0 108:0.0 109:0.0 110:0.0 111:0.0 112:0.0 113:0.0 114:0.0 115:0.0 116:0.0 117:0.0 118:0.01837027631700039 119:0.0 120:0.0 121:0.0 122:0.0 123:0.0 124:0.0 125:0.9998308420181274 126:0.0 127:0.0 128:0.0 129:0.0 130:0.0 131:0.0 132:0.0 133:0.0 134:0.0 135:0.0 136:0.0 137:0.0 138:0.0 139:0.0 140:0.0 141:0.0 142:0.0 143:0.0 144:0.0 145:0.5651376247406006 146:0.0 147:1.5426053141709417E-4 148:0.0 149:0.09293502569198608 150:0.0305959340184927 151:0.07206181436777115 152:0.02713516727089882 153:0.12283045053482056 154:0.11507799476385117 155:0.12764962017536163 156:0.10921535640954971 157:0.07169577479362488 158:0.1695084571838379 159:0.0 160:3.0852106283418834E-4 161:0.05348726734519005 162:0.02878705784678459 163:0.6990854144096375 164:0.0 165:0.03949069604277611 166:0.06157362833619118 167:0.0281422957777977 168:0.0 169:0.0 170:0.0 171:0.05192190408706665 172:0.04857650399208069 173:0.032437656074762344 174:4.627815796993673E-4 175:0.0 176:0.14747555553913116 177:0.13482089340686798 178:0.15257777273654938 179:0.07298494875431061 180:0.038701049983501434 181:0.4493452310562134 182:0.28197187185287476 183:0.20502443611621857 184:0.0 185:0.001762224012054503 186:0.0 187:0.0016614407068118453 188:0.08039124310016632 189:0.13122211396694183 190:8.811120060272515E-4 191:0.0 192:0.0 193:0.0 194:0.0 195:0.0 196:0.0 197:0.0 198:0.0 199:0.5897069573402405 200:0.0 201:0.0 202:0.0 203:0.0011748160468414426 204:0.0 205:0.4219152629375458 206:0.2681765556335449 207:0.23488321900367737 208:2.9370401171036065E-4 209:0.0 210:0.0 211:0.0 212:0.0 213:0.0 214:0.0 215:0.0 216:0.0 217:0.0 218:0.0 219:0.0 220:0.0 221:0.0 222:0.0 223:0.0 224:0.0 225:0.0 226:0.9950371980667114 227:0.0 228:0.0 229:0.0 230:0.0 231:0.0 232:0.0 233:0.0 234:0.0 235:0.0 236:0.0 237:0.0 238:0.0 239:0.0 240:0.0 241:0.0 242:0.0 243:0.0 244:0.0 245:0.0 246:0.0 247:0.0 248:0.0 249:0.0 250:0.0 251:0.0 252:0.0 253:0.5195655226707458 254:0.0 255:0.0 256:0.0 257:0.4496913254261017 258:0.0 259:0.14492779970169067 260:0.04216192662715912 261:0.0754314735531807 262:2.856991486623883E-4 263:0.03915746510028839 264:0.2646743655204773 265:0.4264964759349823 266:0.4958553910255432 267:0.0 268:2.0201981533318758E-4 269:0.0 270:0.0 271:0.0 272:0.0 273:0.0 274:0.0 275:2.856991486623883E-4 276:0.0 277:0.0 278:0.0 279:0.0 280:0.0 281:0.0 282:0.0 283:0.0 284:1.4284957433119416E-4 285:0.0 286:0.0 287:0.0 288:0.0 289:0.35421502590179443 290:0.7109300494194031 291:0.602803111076355 292:0.07558683305978775 293:0.004995053168386221 294:0.0 295:0.0 296:0.0 297:0.0 298:5.550059140659869E-4 299:0.0 300:0.0 301:0.0 302:0.0 303:0.0 304:0.0 305:0.0 306:0.0 307:0.0 308:0.0 309:0.0 310:0.0 311:0.0 312:0.0 313:0.0 314:0.0 315:0.0 316:0.0 317:0.0 318:0.0 319:0.0 320:0.0 321:0.0 322:0.0 323:0.0 324:0.0 
-0.1986605153493385 0.09557742647294679 0.0 0.26851009344565663 0.34104709318745396 0.1420153951412885 0.24036265217421118 0.07017735969455202 0.13499885696445812 0.28485210370095215 0.30340280444951895 0.20771534165987313 0.26723700702312847 0.08603072401380299 0.14021733747855486 0.09410118267909255 0.39720697556518064 0.15308207726661588 0.08975796503126862 0.20422433553101002 0.1848407375444544 0.16550163789358055 0.19326900326487734 0.12902178659109195 0.1366001861170894 1:0.0 2:0.0 3:0.0 4:0.0 5:0.0 6:0.0 7:0.0 8:0.0 9:0.0 10:0.0 11:0.0 12:0.0 13:0.0 14:9.448843193240464E-4 15:0.0 16:0.0 17:0.0 18:0.0 19:0.0018897686386480927 20:0.0 21:0.0 22:0.0 23:0.0 24:0.0 25:0.0 26:0.0 27:0.0 28:0.349698543548584 29:0.0 30:0.08566024154424667 31:0.0 32:0.778603196144104 33:0.5139442086219788 34:0.0026725365314632654 35:0.0 36:0.0 37:0.0 38:0.0 39:0.0 40:0.0 41:3.340895927976817E-4 42:0.0 43:0.0 44:0.0 45:0.0 46:0.0 47:0.0 48:0.0 49:0.0 50:3.340895927976817E-4 51:0.0 52:0.0 53:0.0 54:0.0 55:0.5258339643478394 56:0.07952812314033508 57:4.7247399925254285E-4 58:0.1341533064842224 59:0.47941938042640686 60:0.056133441627025604 61:0.030187077820301056 62:0.04581597447395325 63:0.2687414884567261 64:0.11141949146986008 65:0.0 66:0.0038997000083327293 67:0.0 68:0.42126569151878357 69:0.3577252924442291 70:0.2161760926246643 71:0.1453290432691574 72:0.07235941290855408 73:0.0 74:0.0 75:0.0 76:0.0 77:5.471417098306119E-4 78:0.0 79:0.0 80:0.0 81:0.0 82:0.0 83:0.0 84:0.0 85:0.0 86:0.0 87:0.0 88:0.0 89:0.0 90:0.0 91:0.6039977669715881 92:0.0 93:0.0023213254753500223 94:0.0 95:0.07003641873598099 96:0.0 97:0.5862264633178711 98:0.5165278315544128 99:0.14075586199760437 100:0.0010942834196612239 101:0.0 102:0.0 103:0.0 104:0.0 105:0.0 106:0.0 107:0.0 108:0.0 109:0.0 110:0.0 111:0.0 112:0.0 113:0.0 114:0.0 115:0.0 116:0.0 117:0.0 118:0.49937617778778076 119:0.0 120:0.0 121:0.0 122:0.49937617778778076 123:0.0 124:0.0 125:0.0 126:0.0 127:0.0 128:0.0 129:0.0 130:0.0 131:0.0 132:0.0 133:0.0 134:0.0 135:0.0 136:0.49937617778778076 137:0.0 138:0.0 139:0.0 140:0.49937617778778076 141:0.0 142:0.0 143:0.0 144:0.0 145:0.591873288154602 146:0.0 147:0.0 148:0.0 149:0.010706215165555477 150:0.026285571977496147 151:1.4283844211604446E-4 152:0.029189586639404297 153:0.14231322705745697 154:0.13601143658161163 155:0.14524367451667786 156:0.23629967868328094 157:0.09987770020961761 158:0.04011659324169159 159:0.02395196631550789 160:0.05417095869779587 161:0.01113636139780283 162:0.02403869666159153 163:0.6276553273200989 164:0.03716614842414856 165:0.0 166:0.026655545458197594 167:8.08016222435981E-4 168:0.0 169:2.856768842320889E-4 170:0.0 171:0.1424717903137207 172:0.019392389804124832 173:0.0 174:0.0 175:0.0 176:0.035148706287145615 177:0.15126976370811462 178:0.23216216266155243 179:0.14412838220596313 180:0.032244905829429626 181:0.14586994051933289 182:0.38322341442108154 183:0.32813766598701477 184:0.0 185:0.029498053714632988 186:0.0 187:0.0 188:0.0 189:0.0 190:0.0 191:0.0 192:0.0 193:0.0 194:0.0 195:0.0 196:0.0 197:0.0 198:0.0 199:0.33345627784729004 200:0.0 201:0.0 202:0.0 203:0.0022444170899689198 204:0.05583861097693443 205:0.6315311193466187 206:0.384660542011261 207:0.24941109120845795 208:3.2063102116808295E-4 209:0.0 210:0.0 211:0.0 212:0.0 213:0.0 214:0.0 215:0.0 216:0.0 217:8.244803175330162E-4 218:0.0 219:0.0 220:0.0 221:0.0 222:0.0 223:0.0 224:0.0 225:0.0 226:0.2151893526315689 227:0.06342070549726486 228:0.0011659911833703518 229:0.20385348796844482 230:0.9326989054679871 231:0.0 232:0.0 233:0.0 234:0.1954103410243988 235:0.0 236:0.0 237:0.0 238:0.0 239:0.0 240:0.0 241:0.0 242:0.0 243:0.0 244:0.0 245:0.0 246:0.0 247:0.0 248:8.244803175330162E-4 249:0.0 250:0.0 251:0.0 252:0.0 253:0.6566368341445923 254:0.038368355482816696 255:0.03180457651615143 256:0.036809176206588745 257:0.4752209782600403 258:0.08933297544717789 259:0.05866647884249687 260:0.0236967746168375 261:0.2885851562023163 262:0.04868385195732117 263:0.21986627578735352 264:0.2341587394475937 265:0.22962866723537445 266:0.13691453635692596 267:0.04363640770316124 268:0.048174865543842316 269:0.06560516357421875 270:0.06282380223274231 271:0.0 272:0.0 273:0.0 274:0.0 275:0.0031233620829880238 276:0.0 277:0.0 278:0.0 279:0.0 280:0.0 281:0.0 282:0.0 283:0.0 284:0.23321104049682617 285:0.0 286:0.0 287:0.0 288:0.0 289:0.7252941131591797 290:0.3941103219985962 291:0.5542178750038147 292:0.1031566932797432 293:0.006580776069313288 294:0.0 295:4.653311043512076E-4 296:0.0 297:0.02797636017203331 298:3.290387976448983E-4 299:0.0 300:0.0 301:0.0 302:0.0 303:0.0 304:0.0 305:0.0 306:0.0 307:0.0 308:0.0 309:0.0 310:0.0 311:6.580775952897966E-4 312:0.0 313:0.0 314:0.0 315:0.0 316:0.0 317:0.0 318:0.0 319:0.0 320:0.0 321:0.0 322:0.0 323:0.0 324:0.0 
-0.0 0.0 0.2646293141740956 0.07869005572332842 0.0 0.0 0.0 0.0 0.0 0.0 0.04933545626474492 0.0 0.05698970715247915 0.0 0.0 0.0 0.4526176442937184 0.0 0.0 0.0 0.0 0.0 0.0 0.0 0.0 1:0.0 2:0.0 3:0.0 4:0.0 5:0.0 6:0.0 7:0.0 8:0.0 9:0.0 10:0.0 11:0.0 12:0.0 13:0.0 14:4.4219326809979975E-4 15:0.0 16:0.0 17:0.0 18:0.0 19:4.4219326809979975E-4 20:0.0 21:0.0 22:0.0 23:0.0 24:0.0 25:0.0 26:0.0 27:0.0 28:0.20696061849594116 29:0.0 30:0.0 31:0.0 32:0.7459937930107117 33:0.11490646004676819 34:0.595816969871521 35:0.12758636474609375 36:0.12720277905464172 37:0.0 38:0.0 39:0.0 40:0.0 41:1.3646626030094922E-4 42:0.0 43:0.0 44:0.0 45:0.0 46:0.0 47:0.0 48:0.0 49:0.0 50:1.3646626030094922E-4 51:0.0 52:0.0 53:0.0 54:0.0 55:0.19545701146125793 56:0.0 57:0.046628206968307495 58:0.0 59:0.6662299036979675 60:0.0 61:0.0 62:0.0 63:0.07307503372430801 64:0.004912785720080137 65:0.0 66:1.9299244740977883E-4 67:0.0 68:0.6659579873085022 69:0.20942187309265137 70:0.1304401159286499 71:0.07624587416648865 72:0.014500143006443977 73:0.0 74:0.0 75:0.0 76:0.0 77:5.19159366376698E-4 78:0.0 79:0.0 80:0.0 81:0.0 82:0.0 83:0.0 84:0.0 85:0.0 86:0.0 87:0.0 88:0.0 89:0.0 90:0.0 91:0.03945992887020111 92:0.0 93:7.342022145166993E-4 94:0.0 95:0.062301695346832275 96:0.22622695565223694 97:0.8124878406524658 98:0.5322080850601196 99:0.0 100:0.0 101:0.0 102:0.0 103:0.0 104:0.0 105:0.0 106:0.0 107:0.0 108:0.0 109:0.0 110:0.0 111:0.0 112:0.0 113:0.0 114:0.0 115:0.0 116:0.0 117:0.0 118:0.711087703704834 119:0.0 120:0.0 121:0.0 122:4.696748510468751E-4 123:0.0 124:0.0 125:0.0 126:0.0 127:0.0 128:0.0 129:0.0 130:0.0 131:0.0 132:0.0 133:0.0 134:0.0 135:0.0 136:0.703103244304657 137:0.0 138:0.0 139:0.0 140:0.0 141:0.0 142:0.0 143:0.0 144:0.0 145:0.4557953476905823 146:0.0 147:1.80860108230263E-4 148:0.0 149:0.02864678017795086 150:0.03581760823726654 151:0.04551281780004501 152:0.03186655789613724 153:0.25523075461387634 154:0.1582304835319519 155:0.1091851070523262 156:0.12049343436956406 157:0.08742379397153854 158:0.21561841666698456 159:0.0 160:1.80860108230263E-4 161:0.03809692710638046 162:0.05932509899139404 163:0.697654128074646 164:0.032099995762109756 165:0.0 166:0.0 167:0.059284258633852005 168:0.036959461867809296 169:3.61720216460526E-4 170:0.0 171:0.08249053359031677 172:0.04412178695201874 173:0.0 174:7.23440432921052E-4 175:0.03689945116639137 176:0.2903703451156616 177:0.050785161554813385 178:0.12029861658811569 179:0.08268047869205475 180:0.019687185063958168 181:0.3441929817199707 182:0.2035493403673172 183:0.2912585437297821 184:0.03494756668806076 185:0.016641702502965927 186:0.04407074302434921 187:0.07172296941280365 188:0.12383224815130234 189:0.09078288078308105 190:0.0 191:0.0 192:0.0 193:0.0 194:0.0 195:0.0 196:0.0 197:0.0 198:0.0 199:0.5892946124076843 200:0.0 201:0.0 202:0.0 203:0.025324329733848572 204:0.049542054533958435 205:0.34306269884109497 206:0.45147621631622314 207:0.22631797194480896 208:0.0 209:0.0 210:0.0 211:0.0 212:0.0 213:0.0 214:0.0 215:0.0 216:0.0 217:4.16397990193218E-4 218:0.0 219:0.0 220:0.0 221:0.0 222:0.0 223:0.0 224:0.0 225:0.0 226:0.4865557551383972 227:0.0 228:0.3785993158817291 229:0.17370861768722534 230:0.7679517269134521 231:0.0 232:0.001177751342765987 233:0.0 234:0.0 235:0.0 236:0.0 237:0.0 238:0.0 239:0.0 240:0.0 241:0.0 242:0.0 243:0.0 244:0.0 245:0.0 246:0.0 247:0.0 248:0.0 249:0.0 250:0.0 251:0.0 252:0.0 253:0.3644329905509949 254:0.0 255:4.797895671799779E-4 256:0.0 257:0.665972888469696 258:0.0 259:0.10112927109003067 260:0.045595791190862656 261:0.1483922153711319 262:0.024257266893982887 263:0.10426858812570572 264:0.1759868562221527 265:0.21147258579730988 266:0.5477402806282043 267:0.046588100492954254 268:0.0 269:0.0 270:0.0 271:0.0 272:0.0 273:0.0 274:0.0 275:0.0 276:0.0 277:0.0 278:0.0 279:0.0 280:0.0 281:0.0 282:0.0 283:0.0 284:0.0 285:0.0 286:0.0 287:0.0 288:0.0 289:0.3122446537017822 290:0.5322014689445496 291:0.5852411985397339 292:0.4546510875225067 293:0.26435983180999756 294:0.0 295:0.002600206295028329 296:0.0 297:0.012508046813309193 298:3.677247150335461E-4 299:0.0 300:0.0 301:0.0 302:0.0 303:0.0 304:0.0 305:0.0 306:0.0 307:0.0 308:0.0 309:0.0 310:0.0 311:7.354494300670922E-4 312:0.0 313:0.0 314:0.0 315:0.0 316:0.0 317:0.0 318:0.0 319:0.0 320:0.0 321:0.0 322:0.0 323:0.0 324:0.0 
-0.15201355736097796 0.0 0.06699295810969016 0.21057527311687338 0.2568144712650783 0.03594047220499014 0.2761092763751566 0.022112806223868662 0.06615575863471913 0.21542807465137473 0.1690829200735842 0.11664061356537495 0.14050681875107088 0.0 0.36404422223575567 0.06774852229480584 0.2139829427885858 0.0 0.06478656553149774 0.07863758077840348 0.12038907903749813 0.018065777002065332 0.07269322537510714 0.06025457599281523 0.029220460314356562 1:0.0 2:0.0 3:0.0 4:0.0 5:0.0 6:0.0 7:0.0 8:0.0 9:0.0 10:0.0 11:0.0 12:0.0 13:0.0 14:0.0 15:0.0 16:0.0 17:0.0 18:0.0 19:0.0013040777994319797 20:0.0 21:0.0 22:0.0 23:0.0 24:0.0 25:0.0 26:0.0 27:0.0 28:0.316893607378006 29:0.0 30:0.25266149640083313 31:0.0 32:0.47860202193260193 33:0.0 34:0.24119585752487183 35:0.36634141206741333 36:0.6436594724655151 37:0.0 38:0.0 39:0.0 40:0.0 41:0.0 42:0.0 43:0.0 44:0.0 45:0.0 46:0.0 47:0.0 48:0.0 49:0.0 50:0.0 51:0.0 52:0.0 53:0.0 54:0.0 55:0.04583128169178963 56:0.0 57:0.0 58:0.0 59:0.7276836633682251 60:0.0 61:0.0 62:0.0 63:0.0 64:0.0014266546349972486 65:7.975242333486676E-4 66:5.043986020609736E-4 67:0.0 68:0.6827576160430908 69:0.04706372693181038 70:2.521993010304868E-4 71:0.0 72:0.0 73:0.0 74:0.0 75:0.0 76:0.0 77:0.0 78:0.0 79:0.0 80:0.0 81:0.0 82:0.0 83:0.0 84:0.0 85:0.0 86:0.0 87:0.0 88:0.0 89:0.0 90:0.0 91:0.013049713335931301 92:0.0 93:0.0016047896351665258 94:0.0 95:0.3404296934604645 96:0.7050940990447998 97:0.6073066592216492 98:0.13399873673915863 99:0.0 100:0.0 101:0.0 102:0.0 103:0.0 104:0.0 105:0.0 106:0.0 107:0.0 108:0.0 109:0.0 110:0.0 111:0.0 112:0.0 113:0.0 114:0.0 115:0.0 116:0.0 117:0.0 118:0.7069886326789856 119:0.0 120:0.0 121:0.0 122:0.0 123:0.0 124:0.0 125:0.0 126:0.0 127:0.0 128:0.0 129:0.0 130:0.0 131:0.0 132:0.0 133:0.0 134:0.0 135:0.0 136:0.7072250247001648 137:0.0 138:0.0 139:0.0 140:2.3637199774384499E-4 141:0.0 142:0.0 143:0.0 144:0.0 145:0.1904946118593216 146:0.03882677108049393 147:4.4032541336491704E-4 148:0.028446560725569725 149:0.1328497678041458 150:0.026969309896230698 151:0.03786798566579819 152:0.0 153:0.04803896322846413 154:0.026835456490516663 155:0.03281893581151962 156:0.0 157:0.06798986345529556 158:0.6202554106712341 159:0.07500699162483215 160:0.020722534507513046 161:0.032735295593738556 162:0.007058190647512674 163:0.23302826285362244 164:0.03874841332435608 165:0.0 166:0.02840772084891796 167:0.1409422606229782 168:0.02840772084891796 169:0.0 170:0.03874841332435608 171:0.06012127175927162 172:0.014426211826503277 173:0.0 174:0.02646535262465477 175:0.05792399123311043 176:0.6680724620819092 177:0.08398567140102386 178:0.030441712588071823 179:0.0 180:0.0 181:0.47492119669914246 182:0.2401830404996872 183:0.23823612928390503 184:0.046424638479948044 185:0.018021639436483383 186:0.0 187:7.178514497354627E-4 188:0.1879938393831253 189:0.140411376953125 190:2.5379881844855845E-4 191:0.0 192:0.0 193:0.0 194:0.0 195:0.0 196:0.0 197:0.0 198:0.0 199:0.5101538300514221 200:0.2968396544456482 201:3.5892572486773133E-4 202:0.028943082317709923 203:0.035340894013643265 204:0.09549320489168167 205:0.2731591463088989 206:0.3930787742137909 207:0.11732274293899536 208:0.0 209:0.0 210:0.0 211:0.0 212:0.0 213:0.0 214:0.0 215:0.0 216:0.0 217:0.0 218:0.0 219:0.0 220:0.0 221:0.0 222:0.0 223:0.0 224:0.0 225:0.0 226:0.7667028903961182 227:0.4770149290561676 228:0.0014964464353397489 229:0.0 230:0.3661242425441742 231:0.0 232:0.2248845398426056 233:0.0 234:0.0 235:0.0 236:0.0 237:0.0 238:0.0 239:0.0 240:0.0 241:0.0 242:0.0 243:0.0 244:0.0 245:0.0 246:0.0 247:0.0 248:0.0010581474052742124 249:0.0 250:0.0 251:0.0 252:0.0 253:0.044135838747024536 254:0.0 255:0.0 256:0.0 257:0.7062713503837585 258:0.0 259:0.0 260:0.0 261:0.0 262:1.7308171663898975E-4 263:0.0 264:0.0 265:0.0 266:0.7065640091896057 267:0.0 268:0.0 269:0.0 270:0.0 271:0.0 272:0.0 273:0.0 274:0.0 275:0.0 276:0.0 277:0.0 278:0.0 279:0.0 280:0.0 281:0.0 282:0.0 283:0.0 284:0.0 285:0.0 286:0.0 287:0.0 288:0.0 289:0.05508115142583847 290:0.0 291:0.8030899167060852 292:0.39467886090278625 293:0.44298893213272095 294:0.0 295:0.0013806805945932865 296:0.0 297:0.0 298:0.0 299:0.0 300:0.0 301:0.0 302:0.0 303:0.0 304:0.0 305:0.0 306:0.0 307:0.0 308:0.0 309:0.0 310:0.0 311:0.0 312:0.0 313:0.0 314:0.0 315:0.0 316:0.0 317:0.0 318:0.0 319:0.0 320:0.0 321:0.0 322:0.0 323:0.0 324:0.0 
-0.0 0.051541867627402586 0.14896226106035548 0.0704886111213475 0.0 0.0 0.0 0.0 0.005959556626246626 0.0 0.06024006794955308 0.0 0.0 0.09081999360387864 0.0 0.14293376059934798 0.0 0.05612440519086118 0.052392773456840264 0.025583895013452786 0.0 0.0 0.06411818026471794 0.001996128557138318 0.13041206074220055 1:0.0 2:0.0 3:0.0 4:0.0 5:0.0 6:0.0 7:0.0 8:0.0 9:0.0 10:0.0 11:0.0 12:0.0 13:0.0 14:0.0 15:0.0 16:0.0 17:0.0 18:0.0 19:0.0 20:0.0 21:0.0 22:0.0 23:0.0 24:0.0 25:0.0 26:0.0 27:0.0 28:0.1596817672252655 29:0.7234362959861755 30:0.39106929302215576 31:0.0 32:0.23337416350841522 33:0.0 34:0.004737429320812225 35:0.4754604995250702 36:0.13288280367851257 37:0.0 38:0.0 39:0.0 40:0.0 41:0.0 42:0.0 43:0.0 44:0.0 45:0.0 46:0.0 47:0.0 48:0.0 49:0.0 50:3.913220134563744E-4 51:0.0 52:0.0 53:0.0 54:0.0 55:3.913220134563744E-4 56:0.0 57:0.0 58:0.051637087017297745 59:0.7484033703804016 60:0.0 61:0.0 62:0.0 63:0.0 64:0.0017609490314498544 65:0.0 66:5.534128868021071E-4 67:0.0 68:0.6494145393371582 69:0.10893599689006805 70:0.06013299152255058 71:0.0 72:0.0 73:0.0 74:0.0 75:0.0 76:0.0 77:0.0014072309713810682 78:0.0 79:0.0 80:0.0 81:0.0 82:0.0 83:0.0 84:0.0 85:0.0 86:0.0 87:0.0 88:0.0 89:0.0 90:0.0 91:0.008443385362625122 92:0.0 93:0.004975312855094671 94:0.0 95:0.07810131460428238 96:0.18754222989082336 97:0.9743357300758362 98:0.09643639624118805 99:0.0 100:0.0 101:0.0 102:0.0 103:0.0 104:0.0 105:0.0 106:0.0 107:0.0 108:0.0 109:0.0 110:0.0 111:0.0 112:0.0 113:0.0 114:0.0 115:0.0 116:0.0 117:0.0 118:0.05536368116736412 119:0.0 120:0.0 121:0.0 122:0.4578150510787964 123:0.0 124:0.7517823576927185 125:0.4713374078273773 126:0.0 127:0.0 128:0.0 129:0.0 130:0.0 131:0.0 132:0.0 133:0.0 134:0.0 135:0.0 136:0.0 137:0.0 138:0.0 139:0.0 140:0.0021293722093105316 141:0.0 142:0.0 143:0.0 144:0.0 145:0.5382888317108154 146:0.0 147:0.0331149660050869 148:0.0 149:0.18769419193267822 150:0.02423408254981041 151:0.06642479449510574 152:0.0 153:0.0 154:2.7548018260858953E-4 155:0.022513847798109055 156:0.08600527793169022 157:0.0641920417547226 158:0.510281503200531 159:0.03701549768447876 160:0.08662517368793488 161:0.0 162:0.017379527911543846 163:0.5384722948074341 164:0.0 165:0.033309824764728546 166:0.0 167:0.070339635014534 168:0.0 169:2.597252023406327E-4 170:0.0 171:0.04674016684293747 172:7.346138590946794E-4 173:0.0 174:1.2986260117031634E-4 175:0.0 176:0.288887083530426 177:0.06987234950065613 178:0.028272172436118126 179:0.0 180:0.0 181:0.4769043028354645 182:0.14944714307785034 183:0.0752958208322525 184:0.0 185:0.001999862026423216 186:0.0 187:0.0053422157652676105 188:0.19385896623134613 189:0.3242858350276947 190:2.2220688697416335E-4 191:0.0 192:0.0 193:0.0 194:0.0 195:0.0 196:0.0 197:0.0 198:0.0 199:0.45328277349472046 200:0.0 201:0.07813666760921478 202:0.030455315485596657 203:8.888275478966534E-4 204:0.0420352928340435 205:0.5180509686470032 206:0.22574947774410248 207:0.26110848784446716 208:2.2220688697416335E-4 209:0.0 210:0.0 211:0.0 212:0.0 213:0.0 214:0.0 215:0.0 216:0.0 217:8.674669661559165E-4 218:0.0 219:0.0 220:0.0 221:0.0 222:0.0 223:0.0 224:0.0 225:0.0 226:0.22554509341716766 227:0.5624212622642517 228:0.3087158203125 229:0.0 230:0.35999879240989685 231:0.0 232:0.30380868911743164 233:0.561616063117981 234:0.013906553387641907 235:0.0 236:0.0 237:0.0 238:0.0 239:0.0 240:0.0 241:0.0 242:0.0 243:0.0 244:0.0 245:0.0 246:0.0 247:0.0 248:8.674669661559165E-4 249:0.0 250:0.0 251:0.0 252:0.0 253:0.05515856668353081 254:0.0 255:0.03900299593806267 256:0.02854304201900959 257:0.5516955256462097 258:0.02854304201900959 259:0.03900299593806267 260:0.0 261:0.0 262:0.0 263:0.0 264:0.0 265:0.059505682438611984 266:0.8272705674171448 267:0.0 268:0.0 269:0.0 270:0.0 271:0.0 272:0.0 273:0.0 274:0.0 275:0.0 276:0.0 277:0.0 278:0.0 279:0.0 280:0.0 281:0.0 282:0.0 283:0.0 284:0.0 285:0.0 286:0.0 287:0.0 288:0.0 289:0.09766322374343872 290:0.3637886047363281 291:0.852709174156189 292:0.21427707374095917 293:0.28998756408691406 294:0.0 295:0.001593653578311205 296:0.0 297:0.03156657516956329 298:3.7562777288258076E-4 299:0.0 300:0.0 301:0.0 302:0.0 303:0.0 304:0.0 305:0.0 306:0.0 307:0.0 308:0.0 309:0.0 310:0.0 311:3.7562777288258076E-4 312:0.0 313:0.0 314:0.0 315:0.0 316:0.0 317:0.0 318:0.0 319:0.0 320:0.0 321:0.0 322:0.0 323:0.0 324:0.0 
-0.0 0.01999832973074538 0.3191874300226269 0.0646996555996424 0.1022518659354354 0.0 0.0 0.10974432449063017 0.011705403727276454 0.0 0.1271809268497543 0.0 0.0 0.038655678263346545 0.3059148068842483 0.0010036728803020601 0.055861189327487015 0.0 0.10793355821190787 0.0036956229133849345 0.0011486857956843671 0.020548628683439676 0.0 0.04068772615733678 0.0 1:0.0 2:0.0 3:0.0 4:0.0 5:0.0 6:0.0 7:0.0 8:0.0 9:0.0 10:0.0 11:0.0 12:0.0 13:0.0 14:0.0 15:0.0 16:0.0 17:0.0 18:0.0 19:0.0015033707022666931 20:0.0 21:0.0 22:0.0 23:0.0 24:0.0 25:0.0 26:0.0 27:0.0 28:0.36984023451805115 29:0.0 30:0.0 31:0.0 32:0.9290940761566162 33:0.0 34:0.0 35:0.0 36:0.0 37:0.0 38:0.0 39:0.0 40:0.0 41:1.618202222744003E-4 42:0.0 43:0.0 44:0.0 45:0.0 46:0.0 47:0.0 48:0.0 49:0.0 50:1.618202222744003E-4 51:0.0 52:0.0 53:0.0 54:0.0 55:0.7486976981163025 56:0.0 57:0.033139973878860474 58:0.0419226810336113 59:0.41037678718566895 60:0.04339437931776047 61:0.0 62:0.05910031124949455 63:0.1330266296863556 64:0.2506610155105591 65:0.0 66:0.025362448766827583 67:0.0 68:0.29515278339385986 69:0.18918734788894653 70:0.11333213746547699 71:0.14246372878551483 72:0.1599799394607544 73:0.0 74:0.0 75:0.0 76:0.0 77:4.6788269537501037E-4 78:0.0 79:0.0 80:0.0 81:0.0 82:0.0 83:0.0 84:0.0 85:0.0 86:0.0 87:0.0 88:0.0 89:0.0 90:0.0 91:0.1773412823677063 92:0.0 93:0.0 94:0.0 95:0.08235423266887665 96:0.3218790292739868 97:0.7687930464744568 98:0.4111161231994629 99:0.3132123053073883 100:4.6788269537501037E-4 101:0.0 102:0.0 103:0.0 104:0.0 105:0.0 106:0.0 107:0.0 108:0.0 109:0.0 110:0.0 111:0.0 112:0.0 113:0.0 114:0.0 115:0.0 116:0.0 117:0.0 118:0.5763904452323914 119:0.0 120:0.0 121:0.0 122:0.5763904452323914 123:0.0 124:0.0 125:0.0 126:0.0 127:0.0 128:0.0 129:0.0 130:0.0 131:0.0 132:0.0 133:0.0 134:0.0 135:0.0 136:0.0 137:0.0 138:0.0 139:0.0 140:0.5763904452323914 141:0.0 142:0.0 143:0.0 144:0.0 145:0.5780047178268433 146:0.0 147:1.365118514513597E-4 148:0.0 149:6.756991497240961E-4 150:0.0 151:1.365118514513597E-4 152:0.0 153:0.11418545246124268 154:0.25678661465644836 155:0.08592407405376434 156:0.07261547446250916 157:0.0264752060174942 158:0.0660521537065506 159:0.05669547617435455 160:0.09005764126777649 161:0.010965649038553238 162:0.009846375323832035 163:0.708808422088623 164:0.0 165:0.0 166:0.0 167:0.0 168:0.0 169:0.0 170:0.0 171:0.0 172:0.14176596701145172 173:0.0 174:2.730237029027194E-4 175:0.0 176:0.03793568164110184 177:0.0 178:0.10759342461824417 179:0.06892818212509155 180:0.13189814984798431 181:0.22736261785030365 182:0.2571718096733093 183:0.5231077671051025 184:0.0329383984208107 185:0.08284305781126022 186:0.14871178567409515 187:0.00112286361400038 188:0.0 189:0.0 190:2.646615030243993E-4 191:0.0 192:0.0 193:0.0 194:0.0 195:0.0 196:0.0 197:0.0 198:0.0 199:0.4071207642555237 200:0.0 201:0.0 202:0.0 203:0.050550349056720734 204:0.11661717295646667 205:0.5056003332138062 206:0.16880865395069122 207:0.3353089392185211 208:5.293230060487986E-4 209:0.0 210:0.0 211:0.0 212:0.0 213:0.0 214:0.0 215:0.0 216:0.0 217:0.0015462710289284587 218:0.0 219:0.0 220:0.0 221:0.0 222:0.0 223:0.0 224:0.0 225:0.0 226:0.27523624897003174 227:0.0 228:0.0 229:0.0 230:0.9556068181991577 231:0.0 232:0.0 233:0.0 234:0.10515780001878738 235:0.0 236:0.0 237:0.0 238:0.0 239:0.0 240:0.0 241:0.0 242:0.0 243:0.0 244:0.0 245:0.0 246:0.0 247:0.0 248:0.0 249:0.0 250:0.0 251:0.0 252:0.0 253:0.7563205361366272 254:0.05903422087430954 255:0.0 256:0.043345849961042404 257:0.40975624322891235 258:0.041875798255205154 259:0.033102914690971375 260:0.0 261:0.12489735335111618 262:0.3285684287548065 263:0.09060940891504288 264:0.16553927958011627 265:0.13267675042152405 266:0.2700998783111572 267:0.0 268:0.02566816657781601 269:0.0 270:0.0384715311229229 271:0.0 272:0.0 273:0.0 274:0.0 275:1.6163925465662032E-4 276:0.0 277:0.0 278:0.0 279:0.0 280:0.0 281:0.0 282:0.0 283:0.0 284:0.0 285:0.0 286:0.0 287:0.0 288:0.0 289:0.3587667644023895 290:0.33356332778930664 291:0.825409471988678 292:0.2542799711227417 293:0.1184079572558403 294:0.0 295:0.002048368798568845 296:0.0 297:0.006166406441479921 298:3.6210386315360665E-4 299:0.0 300:0.0 301:0.0 302:0.0 303:0.0 304:0.0 305:0.0 306:0.0 307:0.0 308:0.0 309:0.0 310:0.0 311:3.6210386315360665E-4 312:0.0 313:0.0 314:0.0 315:0.0 316:0.0 317:0.0 318:0.0 319:0.0 320:0.0 321:0.0 322:0.0 323:0.0 324:0.0 
-0.0 -0.0 0.0 0.0 0.0 0.0 0.0 0.0 0.0 0.0 0.0 0.0 0.0 0.0 0.0 0.0 0.0 0.0 0.012371594878990972 0.0 0.0 0.0 0.0 0.0 0.0 1:0.0 2:0.0 3:0.0 4:0.0 5:0.0 6:0.0 7:0.0 8:0.0 9:0.0 10:8.819334325380623E-4 11:0.0 12:0.0 13:0.0 14:8.819334325380623E-4 15:0.0 16:0.0 17:0.0 18:0.0 19:0.0017638668650761247 20:0.0 21:0.0 22:0.0 23:0.0 24:0.0 25:0.0 26:0.0 27:0.0 28:0.2543202042579651 29:0.9162390232086182 30:0.3000944256782532 31:0.0 32:0.011465134099125862 33:0.0 34:0.003741726279258728 35:0.0 36:0.07496953010559082 37:0.0013504552189260721 38:0.0 39:6.366106681525707E-4 40:0.12125831842422485 41:0.047716084867715836 42:0.0 43:0.0014854248147457838 44:0.0 45:0.0 46:0.0013504552189260721 47:0.0 48:0.0 49:0.043364617973566055 50:0.4194298982620239 51:0.12490765750408173 52:4.24407102400437E-4 53:0.0 54:0.0 55:0.04805365204811096 56:0.13560879230499268 57:0.6979668736457825 58:0.2142217755317688 59:0.04366940259933472 60:0.0 61:0.0 62:0.0 63:0.0 64:0.0015005057211965322 65:0.0 66:0.04754002019762993 67:0.04222424700856209 68:0.46185749769210815 69:0.12882892787456512 70:0.0 71:0.0 72:0.0 73:0.0021017941180616617 74:7.832924020476639E-4 75:9.907952044159174E-4 76:7.832924020476639E-4 77:0.07321248948574066 78:0.1856183558702469 79:9.907952044159174E-4 80:0.0 81:0.0 82:0.0 83:0.0 84:0.0 85:0.0 86:0.0 87:0.0 88:0.0 89:0.0 90:0.0 91:0.42946657538414 92:0.0 93:0.12324650585651398 94:0.0 95:0.3046616017818451 96:0.7227963209152222 97:0.3438330590724945 98:0.09842653572559357 99:0.13185077905654907 100:3.5029900027439E-4 101:0.0 102:0.0 103:0.0 104:0.0 105:0.0 106:0.0 107:0.0 108:0.0 109:2.2782079759053886E-4 110:0.0 111:0.0 112:0.0 113:0.0 114:0.0 115:0.0 116:0.0 117:0.0 118:0.7993151545524597 119:0.13030977547168732 120:6.443745223805308E-4 121:0.0 122:0.0015947455540299416 123:0.0 124:3.221872611902654E-4 125:0.0 126:0.023238835856318474 127:2.2782079759053886E-4 128:0.0 129:0.0 130:0.0 131:0.0 132:0.0 133:0.0 134:0.0 135:0.0 136:0.3041418790817261 137:0.0 138:9.665617253631353E-4 139:0.0 140:0.0015947455540299416 141:0.0 142:3.221872611902654E-4 143:0.19757573306560516 144:0.4604666829109192 145:0.7272463440895081 146:0.2880490720272064 147:3.635241591837257E-4 148:0.0 149:0.0015423023141920567 150:0.0 151:0.0 152:0.0 153:0.07455407083034515 154:5.141007713973522E-4 155:0.0 156:0.0 157:0.0 158:2.570503856986761E-4 159:0.0 160:0.0 161:0.0 162:0.0 163:0.2812146544456482 164:0.0 165:3.635241591837257E-4 166:0.0 167:0.002056403085589409 168:0.0 169:0.09075254201889038 170:0.28959187865257263 171:0.4597756862640381 172:2.570503856986761E-4 173:0.0 174:0.0 175:0.0 176:2.570503856986761E-4 177:0.0 178:0.0 179:0.0 180:0.0 181:0.0 182:0.0 183:0.0 184:0.0 185:0.9950371980667114 186:0.0 187:0.0 188:0.0 189:0.0 190:0.0 191:0.0 192:0.0 193:0.0 194:0.0 195:0.0 196:0.0 197:0.0 198:0.0 199:0.0 200:0.0 201:0.0 202:0.0 203:0.0 204:0.0 205:0.0 206:0.0 207:0.0 208:0.0 209:0.0 210:0.0 211:0.0 212:0.0 213:0.0 214:0.0 215:0.0 216:0.0 217:0.0 218:0.0 219:0.0 220:0.0 221:0.0 222:0.0 223:0.0 224:0.0 225:0.0 226:0.04837875813245773 227:0.0 228:0.003257995005697012 229:0.0 230:0.006911251228302717 231:0.0 232:0.4050445556640625 233:0.9026340842247009 234:0.13707798719406128 235:0.0 236:0.0 237:0.0 238:0.0 239:0.0 240:0.0 241:0.0 242:0.0 243:0.0 244:0.0 245:0.0 246:0.0 247:0.0 248:0.001151875127106905 249:0.0 250:0.0 251:0.0 252:0.0 253:0.00533379428088665 254:0.0 255:2.0386821415740997E-4 256:0.0 257:0.08116064220666885 258:0.33395862579345703 259:0.6262708902359009 260:0.0747857466340065 261:0.007613052148371935 262:0.0010090961586683989 263:0.0 264:0.0 265:0.24448060989379883 266:0.5911677479743958 267:0.08222693204879761 268:0.04558495432138443 269:0.0 270:0.0 271:0.0 272:0.0 273:0.0 274:0.0 275:0.03185860812664032 276:0.0 277:0.0 278:0.0 279:0.0 280:0.0 281:0.0 282:0.0 283:0.0 284:0.2547247111797333 285:0.0 286:0.0 287:0.0 288:0.0 289:0.39977627992630005 290:0.09366028755903244 291:0.42999863624572754 292:0.6462255716323853 293:0.44617533683776855 294:0.0 295:0.11360342055559158 296:0.0 297:0.12955963611602783 298:0.0 299:0.0 300:0.0 301:0.0 302:0.0 303:0.0 304:0.0 305:0.0 306:0.0 307:0.0 308:0.0 309:0.0 310:0.0 311:0.011686908081173897 312:0.0 313:0.0 314:0.0 315:0.0 316:0.0 317:0.0 318:0.0 319:0.0 320:0.0 321:0.0 322:0.0 323:0.0 324:0.0 
-0.0 -0.0 0.0 0.0 0.0 0.0 0.0 0.0 0.0 0.0 0.0 0.0 0.0 0.0 0.001985657050881882 0.0 0.0 0.02580111798485485 0.02256557651966838 0.0 0.0 0.0 0.0 0.0 0.0 1:0.0 2:0.0 3:0.0 4:0.0 5:0.0 6:0.0 7:0.0 8:0.0 9:0.0 10:0.0 11:0.0 12:0.0 13:0.0 14:7.766259368509054E-4 15:0.0 16:0.0 17:0.0 18:0.0 19:7.766259368509054E-4 20:0.0 21:0.0 22:0.0 23:0.0 24:0.0 25:0.0 26:0.0 27:0.0 28:0.0875280499458313 29:0.7231433987617493 30:0.6849648356437683 31:0.0 32:0.006213007494807243 33:0.0 34:0.00329494453035295 35:0.0 36:0.013225463218986988 37:0.0 38:0.0 39:0.0 40:0.0 41:2.8200820088386536E-4 42:0.0 43:0.0 44:0.0 45:0.0 46:0.0 47:0.0 48:0.0 49:0.0 50:2.8200820088386536E-4 51:0.0 52:0.0 53:0.0 54:0.0 55:0.00578116811811924 56:0.07745655626058578 57:0.6021428108215332 58:0.3470350205898285 59:0.18463079631328583 60:0.0 61:0.0 62:0.0 63:0.012127173133194447 64:0.0028200820088386536 65:0.0 66:3.988198295701295E-4 67:0.037901002913713455 68:0.5635971426963806 69:0.29491016268730164 70:0.26582661271095276 71:0.0 72:0.0 73:0.0 74:0.0 75:0.0 76:0.0 77:7.53553758841008E-4 78:0.0 79:0.0 80:0.0 81:0.0 82:0.0 83:0.0 84:0.0 85:0.0 86:0.0 87:0.0 88:0.0 89:0.0 90:0.0 91:0.34626153111457825 92:0.05472611263394356 93:0.13223275542259216 94:0.13953131437301636 95:0.2505589425563812 96:0.09907154738903046 97:0.39989858865737915 98:0.243470698595047 99:0.7405140399932861 100:3.76776879420504E-4 101:0.0 102:0.0 103:0.0 104:0.0 105:0.0 106:0.0 107:0.0 108:0.0 109:6.080554448999465E-4 110:0.0 111:0.0 112:0.0 113:0.0 114:0.0 115:0.0 116:0.0 117:0.0 118:0.728043794631958 119:0.23017215728759766 120:0.06883485615253448 121:0.0 122:0.0014187960186973214 123:0.0 124:0.0017198403365910053 125:0.0 126:0.030608486384153366 127:0.0 128:0.0 129:0.0 130:0.0 131:0.0 132:0.0 133:0.0 134:0.0 135:0.0 136:0.43780168890953064 137:0.0 138:5.73280151002109E-4 139:0.0 140:6.080554448999465E-4 141:0.0 142:5.73280151002109E-4 143:0.23007287085056305 144:0.4082741141319275 145:0.6864873766899109 146:0.3597988486289978 147:0.0 148:0.0 149:0.0018443606095388532 150:0.0 151:8.694399148225784E-4 152:0.0 153:0.0 154:3.073934349231422E-4 155:0.0 156:0.0 157:0.0 158:6.147868698462844E-4 159:0.0 160:0.0 161:0.0 162:0.0 163:0.13248784840106964 164:0.0 165:4.347199574112892E-4 166:0.0 167:0.0015369672328233719 168:0.0 169:0.10392853617668152 170:0.17519299685955048 171:0.5832887887954712 172:0.0 173:0.0 174:0.0 175:0.0 176:3.073934349231422E-4 177:0.0 178:0.0 179:0.0 180:0.0 181:0.4214056730270386 182:0.0 183:0.003990709315985441 184:0.0 185:0.36213842034339905 186:0.0 187:0.4762265384197235 188:0.1923583596944809 189:0.62413489818573 190:0.0028218578081578016 191:0.0 192:0.0 193:0.0 194:0.0 195:0.0 196:0.0 197:0.0 198:0.0 199:0.0 200:0.0 201:0.0 202:0.0 203:0.1947081834077835 204:0.0 205:0.0 206:0.0 207:0.0 208:0.0 209:0.0 210:0.0 211:0.0 212:0.0 213:0.0 214:0.0 215:0.0 216:0.0 217:0.0011526314774528146 218:0.0 219:0.0 220:0.0 221:0.0 222:0.0 223:0.0 224:0.0 225:0.0 226:0.08298946171998978 227:0.0 228:0.00326013402082026 229:0.0 230:0.005186841357499361 231:0.0 232:0.950879693031311 233:0.2981616258621216 234:0.0 235:0.0 236:0.0 237:0.0 238:0.0 239:0.0 240:0.0 241:0.0 242:0.0 243:0.0 244:0.0 245:0.0 246:0.0 247:0.0 248:0.0011526314774528146 249:0.0 250:0.0 251:0.0 252:0.0 253:0.005544743966311216 254:0.0 255:0.0 256:0.0 257:0.2635396420955658 258:0.35123953223228455 259:0.5571720004081726 260:0.08800983428955078 261:0.012791451066732407 262:4.377429431769997E-4 263:0.0 264:0.17204433679580688 265:0.25948435068130493 266:0.6246556043624878 267:0.0408664271235466 268:8.254160056822002E-4 269:0.0 270:0.0 271:0.0 272:0.0 273:0.0 274:0.0 275:0.0 276:0.0 277:0.0 278:0.0 279:0.0 280:0.0 281:0.0 282:0.0 283:0.0 284:1.4591430954169482E-4 285:0.0 286:0.0 287:0.0 288:0.0 289:0.057997725903987885 290:0.41215670108795166 291:0.9048058390617371 292:0.08313547819852829 293:0.008241641335189342 294:0.0 295:5.541970604099333E-4 296:0.0 297:0.033311810344457626 298:0.0 299:0.0 300:0.0 301:0.0 302:0.0 303:0.0 304:0.0 305:0.0 306:0.0 307:0.0 308:0.0 309:0.0 310:0.0 311:0.0 312:0.0 313:0.0 314:0.0 315:0.0 316:0.0 317:0.0 318:0.0 319:0.0 320:0.0 321:0.0 322:0.0 323:0.0 324:0.0 
-0.0 -0.0 0.0 0.0 0.0 0.4149614538321967 0.0 0.0 0.0 0.0 0.0 0.0 0.0 0.0 0.0 0.05604971524309614 0.0 0.039406085961535026 0.01724707116591999 0.0 0.0 0.0 0.0 0.0 0.0 1:0.0 2:0.0 3:0.0 4:0.0 5:0.0 6:0.0 7:0.0 8:0.0 9:0.0 10:0.0 11:0.0 12:0.0 13:0.0 14:0.0 15:0.0 16:0.0 17:0.0 18:0.0 19:0.0 20:0.0 21:0.0 22:0.0 23:0.0 24:0.0 25:0.0 26:0.0 27:0.0 28:0.0 29:0.0 30:0.9999999403953552 31:0.0 32:0.0 33:0.0 34:0.0 35:0.0 36:0.0 37:0.0 38:0.0 39:0.0 40:0.0 41:0.0 42:0.0 43:0.0 44:0.0 45:0.0 46:0.0 47:0.0 48:0.0 49:0.0 50:0.0 51:0.0 52:0.0 53:0.0 54:0.0 55:6.124378996901214E-4 56:0.0 57:0.3527231514453888 58:0.32416775822639465 59:0.1665945202112198 60:0.0 61:0.0 62:0.0 63:0.0 64:4.593284393195063E-4 65:0.0 66:0.04553147405385971 67:0.12774093449115753 68:0.8117893934249878 69:0.25564560294151306 70:2.165295009035617E-4 71:0.0 72:0.0 73:0.0 74:0.0 75:0.0 76:0.0 77:4.223740252200514E-4 78:0.0 79:0.0 80:0.0 81:0.0 82:0.0 83:0.0 84:0.0 85:0.0 86:0.0 87:0.0 88:0.0 89:0.0 90:0.0 91:0.21794581413269043 92:0.0 93:0.0 94:0.0 95:0.48490965366363525 96:0.7107413411140442 97:0.44220271706581116 98:0.11561018228530884 99:0.05744441971182823 100:0.0 101:0.0 102:0.0 103:0.0 104:0.0 105:0.0 106:0.0 107:0.0 108:0.0 109:0.0 110:0.0 111:0.0 112:0.0 113:0.0 114:0.0 115:0.0 116:0.0 117:0.0 118:0.454753041267395 119:0.47350049018859863 120:0.16378018260002136 121:0.0 122:0.0020757406018674374 123:0.0 124:0.0 125:0.0 126:0.003927621059119701 127:2.306378592038527E-4 128:0.0 129:0.0 130:0.0 131:0.0 132:0.0 133:0.0 134:0.0 135:0.0 136:0.6601487994194031 137:0.0 138:0.0013046846725046635 139:0.0 140:0.0011531893396750093 141:0.0 142:0.07782652229070663 143:0.25295811891555786 144:0.19054925441741943 145:0.19835659861564636 146:0.377610981464386 147:0.7300780415534973 148:0.12002191692590714 149:0.05334331467747688 150:0.0 151:7.817496079951525E-4 152:0.0 153:0.004982695449143648 154:2.7639023028314114E-4 155:0.0 156:0.0 157:0.0 158:0.08485180139541626 159:0.0 160:0.0 161:0.0 162:0.0 163:0.17109936475753784 164:0.0 165:3.9087480399757624E-4 166:0.0 167:0.0016583413816988468 168:0.0 169:0.18421904742717743 170:0.3133023977279663 171:0.3149629831314087 172:0.0 173:0.0 174:0.0 175:0.0 176:0.0 177:0.0 178:0.0 179:0.0 180:0.0 181:0.09084059298038483 182:0.0 183:0.2573702931404114 184:0.0 185:0.3864365518093109 186:0.7994949817657471 187:0.25351682305336 188:0.0 189:0.2696423828601837 190:0.0021628711838275194 191:0.0 192:0.0 193:0.0 194:0.0 195:0.0 196:0.0 197:0.0 198:0.0 199:0.0 200:0.0 201:0.0 202:0.0 203:7.209570612758398E-4 204:0.0 205:0.0 206:0.0 207:0.0 208:0.0 209:0.0 210:0.0 211:0.0 212:0.0 213:0.0 214:0.0 215:0.0 216:0.0 217:7.123862160369754E-4 218:0.0 219:0.0 220:0.0 221:0.0 222:0.0 223:0.0 224:0.0 225:0.0 226:0.05771375820040703 227:0.0 228:0.0 229:0.0 230:0.008548635058104992 231:0.0 232:0.7448002099990845 233:0.6571854948997498 234:0.09986628592014313 235:0.0 236:0.0 237:0.0 238:0.0 239:0.0 240:0.0 241:0.0 242:0.0 243:0.0 244:0.0 245:0.0 246:0.0 247:0.0 248:0.0014247724320739508 249:0.0 250:0.0 251:0.0 252:0.0 253:0.0 254:0.0 255:3.99117823690176E-4 256:0.0 257:0.148872971534729 258:0.3713186979293823 259:0.5944005250930786 260:0.008649216033518314 261:0.0075858645141124725 262:4.233283980283886E-4 263:0.0 264:0.0 265:0.19422678649425507 266:0.6051586866378784 267:0.11995010823011398 268:5.98676735535264E-4 269:0.0 270:0.0 271:0.0 272:0.0 273:0.0 274:0.0 275:0.03372516110539436 276:0.0 277:0.0 278:0.0 279:0.0 280:0.0 281:0.0 282:0.0 283:0.0 284:0.2589358687400818 285:0.0 286:0.0 287:0.0 288:0.0 289:0.24908065795898438 290:0.07944294065237045 291:0.5916370749473572 292:0.6526625752449036 293:0.36349958181381226 294:0.061408624053001404 295:0.0 296:0.0 297:0.13687433302402496 298:0.0 299:0.0 300:0.0 301:0.0 302:0.0 303:0.0 304:0.0 305:0.0 306:0.0 307:0.0 308:0.0 309:0.0 310:0.0 311:0.03173511475324631 312:0.0 313:0.0 314:0.0 315:0.0 316:0.0 317:0.0 318:0.0 319:0.0 320:0.0 321:0.0 322:0.0 323:0.0 324:0.0 
-0.1548201183149764 -0.28907912483916764 0.4158388710917304 0.433022691539192 0.3022034334571994 0.7731791785956662 0.3419432536986737 0.5964688798661643 0.37938674753962215 0.1918248379936907 0.33555197867303715 0.28490023957008037 0.27903065257040577 0.37615645113530743 0.5565029213601349 0.33997463433369973 0.5721290954195472 0.6226235691146651 0.2983174863641554 0.28328156714737757 0.2134746172604702 0.17899562016825327 0.1284420914482609 0.17223192036480905 0.2393239793941884 1:0.0 2:0.0 3:0.0 4:0.0 5:0.0 6:0.0 7:0.0 8:0.0 9:0.0 10:0.0 11:0.0 12:0.0 13:0.0 14:0.0 15:0.0 16:0.0 17:0.0 18:0.0 19:0.0 20:0.0 21:0.0 22:0.0 23:0.0 24:0.0 25:0.0 26:0.0 27:0.0 28:0.9999993443489075 29:0.0 30:0.0 31:0.0 32:0.0 33:0.0 34:0.0 35:0.0 36:0.0 37:0.0 38:0.0 39:0.0 40:0.0 41:2.2043369244784117E-4 42:0.0 43:0.0 44:0.0 45:0.0 46:0.0 47:0.0 48:0.0 49:0.0 50:0.0 51:0.0 52:0.0 53:0.0 54:0.0 55:0.221197247505188 56:0.12393739074468613 57:0.5025403499603271 58:0.21424409747123718 59:0.15143968164920807 60:0.0 61:0.0 62:0.0 63:0.0 64:0.027333777397871017 65:0.07181268185377121 66:6.234805914573371E-4 67:0.12108131498098373 68:0.7082547545433044 69:0.2886105477809906 70:0.07964980602264404 71:0.0 72:0.049996186047792435 73:0.0 74:0.0 75:0.0 76:0.0 77:4.453526053112E-4 78:0.0 79:0.0 80:0.0 81:0.0 82:0.0 83:0.0 84:0.0 85:0.0 86:0.0 87:0.0 88:0.0 89:0.0 90:0.0 91:0.16345830261707306 92:0.0 93:0.0 94:0.0 95:0.05477836728096008 96:0.15680564939975739 97:0.8654688596725464 98:0.24660564959049225 99:0.3685666620731354 100:4.453526053112E-4 101:0.0 102:0.0 103:0.0 104:0.0 105:0.0 106:0.0 107:0.0 108:0.0 109:0.0 110:0.0 111:0.0 112:0.0 113:0.0 114:0.0 115:0.0 116:0.0 117:0.0 118:0.7007080316543579 119:0.0 120:0.0 121:0.0 122:0.0 123:0.0 124:0.0 125:0.0 126:0.0 127:0.0 128:0.0 129:0.0 130:0.0 131:0.0 132:0.0 133:0.0 134:0.0 135:0.0 136:0.713448166847229 137:0.0 138:0.0 139:0.0 140:0.0 141:0.0 142:0.0 143:0.0 144:0.0 145:0.268703818321228 146:0.0 147:1.5123828779906034E-4 148:0.0 149:0.0012832994107156992 150:0.0 151:0.0 152:0.0 153:0.06897816061973572 154:0.6219212412834167 155:0.029410693794488907 156:0.0 157:0.0 158:0.15656274557113647 159:0.02819570153951645 160:0.0 161:0.03381689637899399 162:0.13584895431995392 163:0.3345138132572174 164:0.0 165:0.0 166:0.0 167:1.069416175596416E-4 168:0.0 169:0.0 170:0.0 171:0.0 172:0.5927792191505432 173:0.03381689637899399 174:0.0 175:0.02822306752204895 176:0.15656253695487976 177:0.0 178:0.0 179:0.0 180:0.027270322665572166 181:0.453261137008667 182:0.0 183:0.07708612084388733 184:0.0 185:0.5171586871147156 186:5.098197143524885E-4 187:3.2243828172795475E-4 188:0.0 189:0.2974385917186737 190:0.0 191:0.0 192:0.0 193:0.0 194:0.0 195:0.0 196:0.0 197:0.0 198:0.0 199:0.4001980125904083 200:0.0 201:6.448765634559095E-4 202:0.0 203:0.5162472128868103 204:0.0 205:0.07758071273565292 206:0.0 207:0.0 208:0.0 209:0.0 210:0.0 211:0.0 212:0.0 213:0.0 214:0.0 215:0.0 216:0.0 217:0.0 218:0.0 219:0.0 220:0.0 221:0.0 222:0.0 223:0.0 224:0.0 225:0.0 226:0.9999999403953552 227:0.0 228:0.0 229:0.0 230:0.0 231:0.0 232:0.0 233:0.0 234:0.0 235:0.0 236:0.0 237:0.0 238:0.0 239:0.0 240:0.0 241:0.0 242:0.0 243:0.0 244:0.0 245:0.0 246:0.0 247:0.0 248:0.0 249:0.0 250:0.0 251:0.0 252:0.0 253:0.0981343537569046 254:4.5620251330547035E-4 255:5.770556163042784E-4 256:0.0 257:0.002040199702605605 258:0.01764625310897827 259:0.2683001160621643 260:0.11351442337036133 261:0.3740869164466858 262:0.5379484295845032 263:0.0 264:0.07357458770275116 265:0.0 266:0.11894404143095016 267:0.05483926460146904 268:0.0 269:0.12260618805885315 270:0.10356078296899796 271:0.0014281397452577949 272:0.0 273:2.885278081521392E-4 274:0.0 275:0.15114851295948029 276:0.22642271220684052 277:0.1411765068769455 278:0.0 279:0.0 280:0.0014281397452577949 281:0.0 282:0.06075076758861542 283:0.21974295377731323 284:0.5275989174842834 285:0.05603273957967758 286:0.001442639040760696 287:0.0 288:0.0 289:0.784480631351471 290:0.33172154426574707 291:0.4592508375644684 292:0.05244149640202522 293:3.603468940127641E-4 294:0.0 295:5.096074310131371E-4 296:0.0 297:0.06738582998514175 298:0.0 299:0.0 300:0.0 301:0.0 302:0.0 303:0.0 304:0.0 305:0.0 306:0.0 307:0.004324162378907204 308:0.0 309:0.2245902419090271 310:0.0759200006723404 311:0.01117075327783823 312:0.0 313:0.0 314:0.0 315:0.0 316:3.603468940127641E-4 317:0.0 318:0.0 319:0.0 320:0.0 321:0.0 322:0.0 323:0.0 324:0.0 
